{"learner":{"attributes":{"best_iteration":"86","best_score":"0.22425471867600902","scikit_learn":"{\"_estimator_type\": \"classifier\"}"},"feature_names":[],"feature_types":[],"gradient_booster":{"model":{"cats":{"enc":[],"feature_segments":[],"sorted_idx":[]},"gbtree_model_param":{"num_parallel_tree":"1","num_trees":"137"},"iteration_indptr":[0,1,2,3,4,5,6,7,8,9,10,11,12,13,14,15,16,17,18,19,20,21,22,23,24,25,26,27,28,29,30,31,32,33,34,35,36,37,38,39,40,41,42,43,44,45,46,47,48,49,50,51,52,53,54,55,56,57,58,59,60,61,62,63,64,65,66,67,68,69,70,71,72,73,74,75,76,77,78,79,80,81,82,83,84,85,86,87,88,89,90,91,92,93,94,95,96,97,98,99,100,101,102,103,104,105,106,107,108,109,110,111,112,113,114,115,116,117,118,119,120,121,122,123,124,125,126,127,128,129,130,131,132,133,134,135,136,137],"tree_info":[0,0,0,0,0,0,0,0,0,0,0,0,0,0,0,0,0,0,0,0,0,0,0,0,0,0,0,0,0,0,0,0,0,0,0,0,0,0,0,0,0,0,0,0,0,0,0,0,0,0,0,0,0,0,0,0,0,0,0,0,0,0,0,0,0,0,0,0,0,0,0,0,0,0,0,0,0,0,0,0,0,0,0,0,0,0,0,0,0,0,0,0,0,0,0,0,0,0,0,0,0,0,0,0,0,0,0,0,0,0,0,0,0,0,0,0,0,0,0,0,0,0,0,0,0,0,0,0,0,0,0,0,0,0,0,0,0],"trees":[{"base_weights":[-2.3358243E-2,1.493183E0,-1.5481313E0,1.7923884E0,1.0586387E0,4.6612585E-1,-1.8345398E0,1.8018204E0,1.1199373E0,1.139773E0,-5.7354838E-2,1.403099E0,-1.5019957E0,-4.8668024E-1,-1.9173882E0,3.4179382E-2,5.422855E-2,9.434241E-3,5.0673854E-2,-5.4874998E-2,3.5444867E-2,5.5226073E-2,-5.710588E-2,3.6886826E-2,-5.9154637E-2,-5.887414E-2,3.0488448E-2,-4.0301096E-2,-5.995929E-2],"categories":[],"categories_nodes":[],"categories_segments":[],"categories_sizes":[],"default_left":[0,0,0,1,1,1,0,0,0,0,0,0,0,1,0,0,0,0,0,0,0,0,0,0,0,0,0,0,0],"id":0,"left_children":[1,3,5,7,9,11,13,15,17,19,-1,21,23,25,27,-1,-1,-1,-1,-1,-1,-1,-1,-1,-1,-1,-1,-1,-1],"loss_changes":[1.9421422E4,5.4339746E2,2.417957E3,1.1470215E1,4.193141E2,9.685175E2,4.0739844E2,5.0078125E0,1.702235E1,2.1206226E2,0E0,5.2136523E2,2.2256613E2,4.812011E2,1.5540039E2,0E0,0E0,0E0,0E0,0E0,0E0,0E0,0E0,0E0,0E0,0E0,0E0,0E0,0E0],"parents":[2147483647,0,0,1,1,2,2,3,3,4,4,5,5,6,6,7,7,8,8,9,9,11,11,12,12,13,13,14,14],"right_children":[2,4,6,8,10,12,14,16,18,20,-1,22,24,26,28,-1,-1,-1,-1,-1,-1,-1,-1,-1,-1,-1,-1,-1,-1],"split_conditions":[2.25E1,8E0,5.9E1,1.19E2,2.9E1,1.3E1,2.75E1,4.5E0,5.5E0,8.8E1,-5.7354838E-2,1.015E2,2.4E1,8.76667E1,7E1,3.4179382E-2,5.422855E-2,9.434241E-3,5.0673854E-2,-5.4874998E-2,3.5444867E-2,5.5226073E-2,-5.710588E-2,3.6886826E-2,-5.9154637E-2,-5.887414E-2,3.0488448E-2,-4.0301096E-2,-5.995929E-2],"split_indices":[50,50,14,12,30,30,50,45,50,35,0,50,50,21,14,0,0,0,0,0,0,0,0,0,0,0,0,0,0],"split_type":[0,0,0,0,0,0,0,0,0,0,0,0,0,0,0,0,0,0,0,0,0,0,0,0,0,0,0,0,0],"sum_hessian":[8.394882E3,4.20879E3,4.186092E3,2.4887095E3,1.7200806E3,5.2092426E2,3.6651677E3,2.450826E3,3.7883522E1,1.6755806E3,4.45E1,3.5333524E2,1.6758902E2,2.1310606E2,3.4520615E3,2.4839016E1,2.4259868E3,1.7044508E1,2.0839016E1,2.2E1,1.6535806E3,3.1283524E2,4.05E1,2.4089016E1,1.435E2,1.0725E2,1.05856064E2,4.3256155E2,3.0195E3],"tree_param":{"num_deleted":"0","num_feature":"51","num_nodes":"29","size_leaf_vector":"1"}},{"base_weights":[-1.3210929E-2,1.4172633E0,-1.5244751E0,1.7242017E0,9.4354415E-1,3.8815835E-1,-1.7896951E0,1.7445542E0,-5.312134E-2,1.2736324E0,2.019955E-2,1.688107E0,-5.771444E-2,-2.158024E-1,-1.8617307E0,5.2491695E-2,2.0881254E-2,-3.7884833E-3,4.3765884E-2,-5.7862133E-2,1.0583822E-2,-5.3977557E-2,5.7992976E-2,-5.6667592E-2,3.5434708E-2,-3.9106123E-2,-5.82783E-2],"categories":[],"categories_nodes":[],"categories_segments":[],"categories_sizes":[],"default_left":[0,0,0,0,1,0,0,1,0,0,1,0,0,1,0,0,0,0,0,0,0,0,0,0,0,0,0],"id":1,"left_children":[1,3,5,7,9,11,13,15,-1,17,19,21,-1,23,25,-1,-1,-1,-1,-1,-1,-1,-1,-1,-1,-1,-1],"loss_changes":[1.8320049E4,6.294922E2,2.0918975E3,1.9390674E2,5.229088E2,1.5195162E3,4.093418E2,1.1546875E1,0E0,3.2831055E2,2.9554315E2,2.8322235E2,0E0,3.802013E2,1.5084766E2,0E0,0E0,0E0,0E0,0E0,0E0,0E0,0E0,0E0,0E0,0E0,0E0],"parents":[2147483647,0,0,1,1,2,2,3,3,4,4,5,5,6,6,7,7,9,9,10,10,11,11,13,13,14,14],"right_children":[2,4,6,8,10,12,14,16,-1,18,20,22,-1,24,26,-1,-1,-1,-1,-1,-1,-1,-1,-1,-1,-1,-1],"split_conditions":[2.4E1,1.1E1,5.9E1,1.3E1,1.9E1,1.890971E-1,2.75E1,1.29E2,-5.312134E-2,1.4285715E-1,9.7E1,1.4E2,-5.771444E-2,8.76667E1,1.890971E-1,5.2491695E-2,2.0881254E-2,-3.7884833E-3,4.3765884E-2,-5.7862133E-2,1.0583822E-2,-5.3977557E-2,5.7992976E-2,-5.6667592E-2,3.5434708E-2,-3.9106123E-2,-5.82783E-2],"split_indices":[50,48,14,50,31,49,50,14,0,49,33,48,0,21,49,0,0,0,0,0,0,0,0,0,0,0,0],"split_type":[0,0,0,0,0,0,0,0,0,0,0,0,0,0,0,0,0,0,0,0,0,0,0,0,0,0,0],"sum_hessian":[8.470343E3,4.3515137E3,4.1188296E3,2.6372563E3,1.7142572E3,5.014342E2,3.6173953E3,2.6230115E3,1.4244731E1,1.2621733E3,4.520839E2,3.2133865E2,1.8009554E2,1.5872903E2,3.4586663E3,2.608718E3,1.4293616E1,1.4750105E2,1.1146722E3,6.446035E1,3.8762357E2,2.023308E1,3.011056E2,7.1937645E1,8.679139E1,4.4220898E2,3.0164573E3],"tree_param":{"num_deleted":"0","num_feature":"51","num_nodes":"27","size_leaf_vector":"1"}},{"base_weights":[1.5141789E-2,1.4214165E0,-1.4289334E0,1.6798195E0,9.7394156E-1,4.2951447E-1,-1.7107633E0,1.6250571E-2,1.6855527E0,1.0374689E0,-5.772371E-2,1.3372868E0,-1.6467725E0,-3.27698E-1,-1.7983334E0,2.6805582E-2,5.0777044E-2,3.308029E-2,-5.4527756E-2,5.1911607E-2,-5.410813E-2,2.4552444E-2,-5.5999693E-2,-5.6096278E-2,2.8834065E-2,-3.5315156E-2,-5.6674946E-2],"categories":[],"categories_nodes":[],"categories_segments":[],"categories_sizes":[],"default_left":[0,0,0,0,1,1,0,0,0,1,0,0,0,1,0,0,0,0,0,0,0,0,0,0,0,0,0],"id":2,"left_children":[1,3,5,7,9,11,13,-1,15,17,-1,19,21,23,25,-1,-1,-1,-1,-1,-1,-1,-1,-1,-1,-1,-1],"loss_changes":[1.7332125E4,4.9644336E2,2.2070566E3,1.5817383E1,2.9622852E2,1.0523624E3,4.4149512E2,0E0,1.1850098E1,2.9344727E2,0E0,4.853092E2,9.531433E1,4.4147064E2,1.8924902E2,0E0,0E0,0E0,0E0,0E0,0E0,0E0,0E0,0E0,0E0,0E0,0E0],"parents":[2147483647,0,0,1,1,2,2,3,3,4,4,5,5,6,6,8,8,9,9,11,11,12,12,13,13,14,14],"right_children":[2,4,6,8,10,12,14,-1,16,18,-1,20,22,24,26,-1,-1,-1,-1,-1,-1,-1,-1,-1,-1,-1,-1],"split_conditions":[2.25E1,9E0,5.9E1,1.1E1,7.7E1,1.3E1,2.75E1,1.6250571E-2,5.25E1,2.9E1,-5.772371E-2,1.015E2,2.4E1,8.53333E1,6.95E1,2.6805582E-2,5.0777044E-2,3.308029E-2,-5.4527756E-2,5.1911607E-2,-5.410813E-2,2.4552444E-2,-5.5999693E-2,-5.6096278E-2,2.8834065E-2,-3.5315156E-2,-5.6674946E-2],"split_indices":[50,50,12,31,8,31,50,0,20,31,0,50,50,21,12,0,0,0,0,0,0,0,0,0,0,0,0],"split_type":[0,0,0,0,0,0,0,0,0,0,0,0,0,0,0,0,0,0,0,0,0,0,0,0,0,0,0],"sum_hessian":[8.530771E3,4.322003E3,4.2087686E3,2.7362004E3,1.5858022E3,5.5402246E2,3.654746E3,1.4758951E1,2.7214417E3,1.5530763E3,3.2725872E1,3.8601367E2,1.6800882E2,2.1825711E2,3.436489E3,2.62728E1,2.6951687E3,1.5196317E3,3.344463E1,3.4390234E2,4.2111317E1,1.3275395E1,1.5473343E2,9.898758E1,1.1926952E2,4.4210788E2,2.994381E3],"tree_param":{"num_deleted":"0","num_feature":"51","num_nodes":"27","size_leaf_vector":"1"}},{"base_weights":[9.599462E-3,1.3815353E0,-1.4248348E0,1.6126375E0,7.8294677E-1,4.6004212E-1,-1.7074102E0,1.6306335E0,-5.3293403E-2,-5.956483E-2,9.767704E-1,1.589772E0,-5.4807372E-2,-2.3923697E-1,-1.7653829E0,5.0333068E-2,4.195302E-2,3.590757E-2,7.250808E-4,-5.347987E-2,5.5099756E-2,2.7589018E-2,-5.5442087E-2,-3.703825E-2,-5.52272E-2],"categories":[],"categories_nodes":[],"categories_segments":[],"categories_sizes":[],"default_left":[0,0,0,0,0,0,0,0,0,0,1,0,0,0,0,0,0,0,0,0,0,0,0,0,0],"id":3,"left_children":[1,3,5,7,9,11,13,15,-1,-1,17,19,-1,21,23,-1,-1,-1,-1,-1,-1,-1,-1,-1,-1],"loss_changes":[1.6743848E4,5.988408E2,2.2170547E3,1.9701562E2,6.5592267E2,1.4107542E3,3.0686035E2,2.9148438E1,0E0,0E0,2.383075E2,3.1052814E2,0E0,2.6413406E2,1.3463672E2,0E0,0E0,0E0,0E0,0E0,0E0,0E0,0E0,0E0,0E0],"parents":[2147483647,0,0,1,1,2,2,3,3,4,4,5,5,6,6,7,7,10,10,11,11,13,13,14,14],"right_children":[2,4,6,8,10,12,14,16,-1,-1,18,20,-1,22,24,-1,-1,-1,-1,-1,-1,-1,-1,-1,-1],"split_conditions":[2.25E1,1.5E1,5.9E1,1.5E1,9.6E-2,1.890971E-1,2.55E1,1E1,-5.3293403E-2,-5.956483E-2,2.1E1,1.47E2,-5.4807372E-2,7.6E1,7E1,5.0333068E-2,4.195302E-2,3.590757E-2,7.250808E-4,-5.347987E-2,5.5099756E-2,2.7589018E-2,-5.5442087E-2,-3.703825E-2,-5.52272E-2],"split_indices":[50,48,14,50,49,49,50,48,0,0,28,48,0,14,14,0,0,0,0,0,0,0,0,0,0],"split_type":[0,0,0,0,0,0,0,0,0,0,0,0,0,0,0,0,0,0,0,0,0,0,0,0,0],"sum_hessian":[8.504263E3,4.3469004E3,4.1573623E3,3.133549E3,1.2133516E3,5.4179425E2,3.6155679E3,3.1180596E3,1.5489595E1,7.814726E1,1.1352042E3,3.6308685E2,1.787074E2,1.3779726E2,3.4777705E3,2.5812046E3,5.36855E2,9.2160175E2,2.1360254E2,2.3891151E1,3.391957E2,8.0561775E1,5.7235474E1,4.376966E2,3.040074E3],"tree_param":{"num_deleted":"0","num_feature":"51","num_nodes":"25","size_leaf_vector":"1"}},{"base_weights":[-3.7541522E-3,1.275048E0,-1.2545487E0,1.5638261E0,7.3328686E-1,9.5815256E-2,-1.5503757E0,1.2251348E0,1.5983926E0,8.7842464E-1,-1.4386086E0,1.5235051E0,-5.474063E-2,-7.924772E-2,-5.396483E-2,4.2692207E-2,7.141735E-4,4.9361084E-2,4.090022E-2,4.220148E-3,3.616645E-2,3.1153578E-2,-5.5546544E-2,-5.301889E-2,5.4010306E-2,1.2237354E-2,-5.4043356E-2],"categories":[],"categories_nodes":[],"categories_segments":[],"categories_sizes":[],"default_left":[0,0,0,0,0,1,0,0,0,0,0,0,0,0,0,0,0,0,0,0,0,0,0,0,0,0,0],"id":4,"left_children":[1,3,5,7,9,11,13,15,17,19,21,23,-1,25,-1,-1,-1,-1,-1,-1,-1,-1,-1,-1,-1,-1,-1],"loss_changes":[1.3396155E4,6.4535596E2,1.6917998E3,2.7404297E1,4.5758087E2,2.0967144E3,1.2690273E3,6.1331482E1,2.2183105E1,3.2644385E2,9.7164566E1,4.0593085E2,0E0,4.2444406E2,0E0,0E0,0E0,0E0,0E0,0E0,0E0,0E0,0E0,0E0,0E0,0E0,0E0],"parents":[2147483647,0,0,1,1,2,2,3,3,4,4,5,5,6,6,7,7,8,8,9,9,10,10,11,11,13,13],"right_children":[2,4,6,8,10,12,14,16,18,20,22,24,-1,26,-1,-1,-1,-1,-1,-1,-1,-1,-1,-1,-1,-1,-1],"split_conditions":[3.3E1,1.1E1,1.890971E-1,1.09E1,1.08E2,1.3E1,5.2E1,7.7E0,8E0,2.0833333E-1,9.225E1,1.47E2,-5.474063E-2,9.3E1,-5.396483E-2,4.2692207E-2,7.141735E-4,4.9361084E-2,4.090022E-2,4.220148E-3,3.616645E-2,3.1153578E-2,-5.5546544E-2,-5.301889E-2,5.4010306E-2,1.2237354E-2,-5.4043356E-2],"split_indices":[48,48,49,44,14,30,48,44,48,49,36,48,0,14,0,0,0,0,0,0,0,0,0,0,0,0,0],"split_type":[0,0,0,0,0,0,0,0,0,0,0,0,0,0,0,0,0,0,0,0,0,0,0,0,0,0,0],"sum_hessian":[8.371117E3,4.1391577E3,4.23196E3,2.6973928E3,1.4417648E3,7.60682E2,3.4712778E3,2.568169E2,2.440576E3,1.352613E3,8.9151764E1,4.3658957E2,3.2409244E2,5.0198407E2,2.9692937E3,2.2009949E2,3.671741E1,2.0236986E3,4.1687738E2,4.16487E2,9.3612604E2,1.2271115E1,7.688065E1,3.30145E1,4.0357507E2,3.924419E2,1.0954216E2],"tree_param":{"num_deleted":"0","num_feature":"51","num_nodes":"27","size_leaf_vector":"1"}},{"base_weights":[-3.8421538E-3,1.2835389E0,-1.1440101E0,1.5539412E0,8.4790105E-1,5.2209216E-1,-1.4001235E0,5.128086E-3,1.5632535E0,-7.2824544E-1,1.0295643E0,1.4964246E0,-1.2343519E0,-3.0908746E-1,-1.6703999E0,3.8614094E-2,4.767106E-2,2.8746752E-2,-4.6427995E-2,3.2687377E-2,-5.2343335E-2,-5.2462433E-2,5.2500147E-2,5.056605E-2,-5.236041E-2,-5.5794735E-2,9.22971E-3,-2.7263537E-2,-5.269821E-2],"categories":[],"categories_nodes":[],"categories_segments":[],"categories_sizes":[],"default_left":[0,0,0,0,1,0,0,0,0,0,1,0,0,0,0,0,0,0,0,0,0,0,0,0,0,0,0,0,0],"id":5,"left_children":[1,3,5,7,9,11,13,-1,15,17,19,21,23,25,27,-1,-1,-1,-1,-1,-1,-1,-1,-1,-1,-1,-1,-1,-1],"loss_changes":[1.2331493E4,4.6193164E2,1.9027026E3,3.0615234E1,4.3552515E2,1.0220334E3,1.1376982E3,0E0,1.2817383E1,2.2101979E2,2.3017444E2,3.218448E2,3.2424002E2,7.371208E2,1.997461E2,0E0,0E0,0E0,0E0,0E0,0E0,0E0,0E0,0E0,0E0,0E0,0E0,0E0,0E0],"parents":[2147483647,0,0,1,1,2,2,3,3,4,4,5,5,6,6,8,8,9,9,10,10,11,11,12,12,13,13,14,14],"right_children":[2,4,6,8,10,12,14,-1,16,18,20,22,24,26,28,-1,-1,-1,-1,-1,-1,-1,-1,-1,-1,-1,-1,-1,-1],"split_conditions":[2.9E1,9E0,5.9E1,4.6E0,9.5E1,1.890971E-1,5.5E1,5.128086E-3,1.09E1,6.75E1,2.9E1,1.47E2,3.4E1,3.2919255E-1,1.890971E-1,3.8614094E-2,4.767106E-2,2.8746752E-2,-4.6427995E-2,3.2687377E-2,-5.2343335E-2,-5.2462433E-2,5.2500147E-2,5.056605E-2,-5.236041E-2,-5.5794735E-2,9.22971E-3,-2.7263537E-2,-5.269821E-2],"split_indices":[48,48,12,44,32,49,48,0,44,12,28,48,48,49,49,0,0,0,0,0,0,0,0,0,0,0,0,0,0],"split_type":[0,0,0,0,0,0,0,0,0,0,0,0,0,0,0,0,0,0,0,0,0,0,0,0,0,0,0,0,0],"sum_hessian":[8.397178E3,3.9438154E3,4.453362E3,2.4300867E3,1.5137288E3,5.930313E2,3.8603308E3,1.6584003E1,2.4135027E3,1.5575961E2,1.3579691E3,3.816667E2,2.1136464E2,7.6735876E2,3.092972E3,2.1513913E2,2.1983635E3,5.0779526E1,1.04980095E2,1.3304395E3,2.7529675E1,2.6778936E1,3.5488776E2,3.0766796E1,1.8059785E2,2.1724666E2,5.501121E2,3.1696054E2,2.7760115E3],"tree_param":{"num_deleted":"0","num_feature":"51","num_nodes":"29","size_leaf_vector":"1"}},{"base_weights":[2.1433601E-2,1.2600521E0,-1.3351415E0,1.5069908E0,7.9900295E-1,3.8074157E-1,-1.5780184E0,1.5268376E0,-5.348071E-2,1.1202449E0,-9.371439E-2,1.1981907E0,-5.089165E-2,-1.6188984E-1,-1.6449143E0,4.6918295E-2,3.9703082E-2,3.5079904E-2,-5.474725E-2,4.89062E-3,-5.7731904E-2,4.7605228E-2,-4.9159378E-2,-5.2234173E-2,3.483709E-2,-3.3142287E-2,-5.16362E-2],"categories":[],"categories_nodes":[],"categories_segments":[],"categories_sizes":[],"default_left":[0,0,0,0,1,1,0,0,0,1,0,0,0,1,0,0,0,0,0,0,0,0,0,0,0,0,0],"id":6,"left_children":[1,3,5,7,9,11,13,15,-1,17,19,21,-1,23,25,-1,-1,-1,-1,-1,-1,-1,-1,-1,-1,-1,-1],"loss_changes":[1.4074078E4,4.958457E2,1.6673335E3,1.9141846E2,4.3952417E2,8.483185E2,3.310791E2,1.6952148E1,0E0,1.6705188E2,1.9211418E2,3.9993604E2,0E0,3.3899493E2,1.3372949E2,0E0,0E0,0E0,0E0,0E0,0E0,0E0,0E0,0E0,0E0,0E0,0E0],"parents":[2147483647,0,0,1,1,2,2,3,3,4,4,5,5,6,6,7,7,9,9,10,10,11,11,13,13,14,14],"right_children":[2,4,6,8,10,12,14,16,-1,18,20,22,-1,24,26,-1,-1,-1,-1,-1,-1,-1,-1,-1,-1,-1,-1],"split_conditions":[2.4E1,1.3E1,5.9E1,1.4E1,1.9E1,1.3E1,2.75E1,9E0,-5.348071E-2,7.7E1,9.957143E1,1.93E2,-5.089165E-2,8.716665E1,7E1,4.6918295E-2,3.9703082E-2,3.5079904E-2,-5.474725E-2,4.89062E-3,-5.7731904E-2,4.7605228E-2,-4.9159378E-2,-5.2234173E-2,3.483709E-2,-3.3142287E-2,-5.16362E-2],"split_indices":[50,48,14,50,30,30,50,48,0,10,36,48,0,20,14,0,0,0,0,0,0,0,0,0,0,0,0],"split_type":[0,0,0,0,0,0,0,0,0,0,0,0,0,0,0,0,0,0,0,0,0,0,0,0,0,0,0],"sum_hessian":[8.372039E3,4.376395E3,3.9956436E3,2.8468584E3,1.5295366E3,4.952491E2,3.5003945E3,2.8308816E3,1.597664E1,1.124493E3,4.0504355E2,3.5602917E2,1.3921991E2,1.582708E2,3.3421238E3,2.3824004E3,4.4848123E2,1.1072786E3,1.7214499E1,3.5677646E2,4.8267082E1,3.1393604E2,4.209314E1,7.1898415E1,8.637238E1,4.1760837E2,2.9245154E3],"tree_param":{"num_deleted":"0","num_feature":"51","num_nodes":"27","size_leaf_vector":"1"}},{"base_weights":[-1.48074655E-2,1.1320208E0,-1.227668E0,1.4494967E0,6.4050597E-1,2.6649322E-2,-1.4887589E0,-1.2848142E-3,1.4602641E0,-1.7552607E-1,9.8120284E-1,1.4342614E0,-5.142641E-2,-1.5865736E-1,-5.050223E-2,4.4930566E-2,3.7614234E-2,1.697837E-2,-5.01657E-2,3.501224E-2,-1.9630603E-2,-5.048795E-2,5.1642388E-2,-5.2815977E-2,1.0981974E-2],"categories":[],"categories_nodes":[],"categories_segments":[],"categories_sizes":[],"default_left":[0,0,0,0,0,1,0,0,0,0,1,0,0,0,0,0,0,0,0,0,0,0,0,0,0],"id":7,"left_children":[1,3,5,7,9,11,13,-1,15,17,19,21,-1,23,-1,-1,-1,-1,-1,-1,-1,-1,-1,-1,-1],"loss_changes":[1.1404473E4,6.555405E2,1.305228E3,4.1381348E1,4.612475E2,1.6919144E3,8.5324756E2,0E0,1.559668E1,5.4555865E2,3.5717566E2,3.475332E2,0E0,3.5726804E2,0E0,0E0,0E0,0E0,0E0,0E0,0E0,0E0,0E0,0E0,0E0],"parents":[2147483647,0,0,1,1,2,2,3,3,4,4,5,5,6,6,8,8,9,9,10,10,11,11,13,13],"right_children":[2,4,6,8,10,12,14,-1,16,18,20,22,-1,24,-1,-1,-1,-1,-1,-1,-1,-1,-1,-1,-1],"split_conditions":[3.7E1,1.1E1,1.890971E-1,4.6E0,1.9705883E-1,1.3E1,5.4E1,-1.2848142E-3,8E0,1.9E1,2.15E1,1.4285715E-1,-5.142641E-2,4.1463414E-1,-5.050223E-2,4.4930566E-2,3.7614234E-2,1.697837E-2,-5.01657E-2,3.501224E-2,-1.9630603E-2,-5.048795E-2,5.1642388E-2,-5.2815977E-2,1.0981974E-2],"split_indices":[48,48,49,44,49,30,48,0,48,48,28,49,0,49,0,0,0,0,0,0,0,0,0,0,0],"split_type":[0,0,0,0,0,0,0,0,0,0,0,0,0,0,0,0,0,0,0,0,0,0,0,0,0],"sum_hessian":[8.19509E3,4.2122344E3,3.982855E3,2.5567163E3,1.6555182E3,6.8645245E2,3.2964026E3,1.8205687E1,2.5385105E3,4.878068E2,1.1677114E3,3.7978162E2,3.0667087E2,4.2134595E2,2.8750566E3,2.1379927E3,4.0051794E2,3.2698834E2,1.6081845E2,1.0491189E3,1.1859257E2,3.1184654E1,3.4859695E2,1.0284892E2,3.18497E2],"tree_param":{"num_deleted":"0","num_feature":"51","num_nodes":"25","size_leaf_vector":"1"}},{"base_weights":[-2.243115E-3,1.1373893E0,-1.1814979E0,1.383593E0,5.0042325E-1,3.8275456E-1,-1.4028754E0,1.4448277E0,1.0900354E0,-8.801561E-1,8.865832E-1,1.4295553E0,-4.9244385E-2,-4.501498E-1,-1.5760857E0,3.1706683E-2,4.4382587E-2,-3.2922056E-2,3.8697783E-2,-6.9498066E-3,-5.5794254E-2,3.5770074E-2,-1.6389344E-2,-4.8434597E-2,4.9459796E-2,-5.222164E-2,7.1295477E-3,-2.7738277E-2,-4.9479224E-2],"categories":[],"categories_nodes":[],"categories_segments":[],"categories_sizes":[],"default_left":[0,0,0,0,0,0,0,0,1,0,1,0,0,0,0,0,0,0,0,0,0,0,0,0,0,0,0,0,0],"id":8,"left_children":[1,3,5,7,9,11,13,15,17,19,21,23,-1,25,27,-1,-1,-1,-1,-1,-1,-1,-1,-1,-1,-1,-1,-1,-1],"loss_changes":[1.1006653E4,6.51583E2,1.3950146E3,5.057129E1,6.222844E2,1.0652817E3,5.8033203E2,2.987207E1,2.3312976E2,1.61206E2,4.0043353E2,2.2610535E2,0E0,4.8510388E2,1.3899512E2,0E0,0E0,0E0,0E0,0E0,0E0,0E0,0E0,0E0,0E0,0E0,0E0,0E0,0E0],"parents":[2147483647,0,0,1,1,2,2,3,3,4,4,5,5,6,6,7,7,8,8,9,9,10,10,11,11,13,13,14,14],"right_children":[2,4,6,8,10,12,14,16,18,20,22,24,-1,26,28,-1,-1,-1,-1,-1,-1,-1,-1,-1,-1,-1,-1,-1,-1],"split_conditions":[3.5E1,1.5E1,5.9E1,1E1,1.9705883E-1,1.890971E-1,5.5E1,1.09E1,9.7E1,2.2E1,1.9E1,1.44E2,-4.9244385E-2,3.953917E-1,1.890971E-1,3.1706683E-2,4.4382587E-2,-3.2922056E-2,3.8697783E-2,-6.9498066E-3,-5.5794254E-2,3.5770074E-2,-1.6389344E-2,-4.8434597E-2,4.9459796E-2,-5.222164E-2,7.1295477E-3,-2.7738277E-2,-4.9479224E-2],"split_indices":[48,48,14,48,49,49,48,44,35,48,30,48,0,49,49,0,0,0,0,0,0,0,0,0,0,0,0,0,0],"split_type":[0,0,0,0,0,0,0,0,0,0,0,0,0,0,0,0,0,0,0,0,0,0,0,0,0,0,0,0,0],"sum_hessian":[8.185976E3,4.162917E3,4.0230588E3,3.0006055E3,1.1623116E3,4.9853094E2,3.5245278E3,2.47595E3,5.246555E2,2.5343312E2,9.0887854E2,3.2902026E2,1.6951068E2,5.433978E2,2.9811301E3,2.0810541E2,2.2678445E3,4.3135567E1,4.8151996E2,1.540394E2,9.9393715E1,7.493805E2,1.5949808E2,2.1206245E1,3.0781403E2,1.8790387E2,3.5549396E2,3.04098E2,2.677032E3],"tree_param":{"num_deleted":"0","num_feature":"51","num_nodes":"29","size_leaf_vector":"1"}},{"base_weights":[-3.2459885E-2,1.1702578E0,-1.2718114E0,1.4149919E0,7.277278E-1,3.2597253E-1,-1.49984E0,1.4360033E0,-5.4240987E-2,1.0340616E0,-1.4660127E-1,1.3761299E0,-4.821394E-2,-3.7485582E-1,-1.5619924E0,4.4009287E-2,3.62767E-2,-1.4070228E-2,3.6944684E-2,-5.4490402E-2,4.267287E-3,-4.7711264E-2,4.8503354E-2,-5.1432963E-2,2.7718846E-2,-3.2980576E-2,-4.8794493E-2],"categories":[],"categories_nodes":[],"categories_segments":[],"categories_sizes":[],"default_left":[0,0,0,0,1,0,0,0,0,0,1,0,0,1,0,0,0,0,0,0,0,0,0,0,0,0,0],"id":9,"left_children":[1,3,5,7,9,11,13,15,-1,17,19,21,-1,23,25,-1,-1,-1,-1,-1,-1,-1,-1,-1,-1,-1,-1],"loss_changes":[1.1888226E4,4.3608594E2,1.4322065E3,1.8149707E2,3.8757532E2,1.00350836E3,2.3900732E2,1.4365234E1,0E0,3.190056E2,1.8238445E2,2.336029E2,0E0,3.2112198E2,9.332959E1,0E0,0E0,0E0,0E0,0E0,0E0,0E0,0E0,0E0,0E0,0E0,0E0],"parents":[2147483647,0,0,1,1,2,2,3,3,4,4,5,5,6,6,7,7,9,9,10,10,11,11,13,13,14,14],"right_children":[2,4,6,8,10,12,14,16,-1,18,20,22,-1,24,26,-1,-1,-1,-1,-1,-1,-1,-1,-1,-1,-1,-1],"split_conditions":[2.3E1,1.2E1,5.9E1,1.4E1,1.9E1,1.890971E-1,2.75E1,9E0,-5.4240987E-2,1.5384616E-1,9.7E1,1.44E2,-4.821394E-2,8.716665E1,7E1,4.4009287E-2,3.62767E-2,-1.4070228E-2,3.6944684E-2,-5.4490402E-2,4.267287E-3,-4.7711264E-2,4.8503354E-2,-5.1432963E-2,2.7718846E-2,-3.2980576E-2,-4.8794493E-2],"split_indices":[50,48,14,50,31,49,50,48,0,49,33,48,0,20,14,0,0,0,0,0,0,0,0,0,0,0,0],"split_type":[0,0,0,0,0,0,0,0,0,0,0,0,0,0,0,0,0,0,0,0,0,0,0,0,0,0,0],"sum_hessian":[7.971513E3,4.045563E3,3.9259502E3,2.601967E3,1.443596E3,4.901562E2,3.435794E3,2.5862468E3,1.5720235E1,1.0688558E3,3.7474005E2,3.1802002E2,1.7213617E2,1.8070084E2,3.255093E3,2.265458E3,3.207886E2,1.2371613E2,9.451398E2,5.3756275E1,3.2098376E2,2.2989742E1,2.9503027E2,8.8677505E1,9.202334E1,4.0284308E2,2.85225E3],"tree_param":{"num_deleted":"0","num_feature":"51","num_nodes":"27","size_leaf_vector":"1"}},{"base_weights":[-7.844036E-4,1.1774205E0,-1.2116808E0,1.309052E0,5.4617983E-1,3.5680446E-1,-1.4350091E0,1.4239441E0,1.1156256E0,-5.6752503E-2,9.892549E-1,1.3284763E0,-1.3863299E0,-2.4981022E-1,-1.5208446E0,1.5370399E-2,4.3036606E-2,3.4380585E-2,-5.3422872E-2,3.459472E-2,-5.3753123E-2,-4.738904E-2,4.7551077E-2,4.359636E-2,-4.7327403E-2,-5.1392067E-2,2.6566168E-2,-2.990589E-2,-4.7904927E-2],"categories":[],"categories_nodes":[],"categories_segments":[],"categories_sizes":[],"default_left":[0,0,0,0,0,0,0,0,0,0,1,0,0,1,0,0,0,0,0,0,0,0,0,0,0,0,0,0,0],"id":10,"left_children":[1,3,5,7,9,11,13,15,17,-1,19,21,23,25,27,-1,-1,-1,-1,-1,-1,-1,-1,-1,-1,-1,-1,-1,-1],"loss_changes":[1.1426708E4,3.3568408E2,1.3847246E3,7.1180664E1,7.6410364E2,8.4014136E2,3.5085498E2,1.863379E1,1.1499805E2,0E0,2.7622717E2,2.4238306E2,1.01099335E2,3.9518466E2,1.2492334E2,0E0,0E0,0E0,0E0,0E0,0E0,0E0,0E0,0E0,0E0,0E0,0E0,0E0,0E0],"parents":[2147483647,0,0,1,1,2,2,3,3,4,4,5,5,6,6,7,7,8,8,10,10,11,11,12,12,13,13,14,14],"right_children":[2,4,6,8,10,12,14,16,18,-1,20,22,24,26,28,-1,-1,-1,-1,-1,-1,-1,-1,-1,-1,-1,-1,-1,-1],"split_conditions":[2.2E1,2.2E1,5.9E1,7E0,2.4E-1,1.890971E-1,2.75E1,3.5555576E1,4.224924E-1,-5.6752503E-2,2.3E1,1.47E2,3.5E1,8.53333E1,7E1,1.5370399E-2,4.3036606E-2,3.4380585E-2,-5.3422872E-2,3.459472E-2,-5.3753123E-2,-4.738904E-2,4.7551077E-2,4.359636E-2,-4.7327403E-2,-5.1392067E-2,2.6566168E-2,-2.990589E-2,-4.7904927E-2],"split_indices":[50,48,14,50,49,49,50,40,49,0,30,48,48,23,14,0,0,0,0,0,0,0,0,0,0,0,0,0,0],"split_type":[0,0,0,0,0,0,0,0,0,0,0,0,0,0,0,0,0,0,0,0,0,0,0,0,0,0,0,0,0],"sum_hessian":[8.005275E3,4.057394E3,3.9478809E3,3.3553938E3,7.020001E2,4.9185178E2,3.456029E3,2.0967305E3,1.2586633E3,1.0692151E2,5.950786E2,3.161526E2,1.7569916E2,2.3399933E2,3.2220298E3,2.5364382E1,2.0713662E3,1.2468226E3,1.1840683E1,5.630985E2,3.1980114E1,2.4762722E1,2.9138986E2,1.0221276E1,1.6547789E2,1.0182971E2,1.3216962E2,4.1181583E2,2.810214E3],"tree_param":{"num_deleted":"0","num_feature":"51","num_nodes":"29","size_leaf_vector":"1"}},{"base_weights":[2.5107551E-2,1.1210798E0,-1.0112339E0,1.3145739E0,5.642195E-1,-2.602219E-1,-1.4011508E0,1.366996E0,1.1044288E0,-6.040983E-1,9.5420414E-1,1.1479359E0,-9.1955626E-1,-1.5808085E-1,-4.6946235E-2,3.1805024E-2,4.189509E-2,-5.340077E-2,3.6670532E-2,5.359769E-3,-5.398443E-2,3.383428E-2,-2.3267781E-2,-4.9339503E-2,5.066852E-2,1.7690254E-2,-4.749129E-2,-5.145933E-2,1.6562978E-2],"categories":[],"categories_nodes":[],"categories_segments":[],"categories_sizes":[],"default_left":[0,0,0,0,0,0,0,0,1,0,1,0,0,0,0,0,0,0,0,0,0,0,0,0,0,0,0,0,0],"id":11,"left_children":[1,3,5,7,9,11,13,15,17,19,21,23,25,27,-1,-1,-1,-1,-1,-1,-1,-1,-1,-1,-1,-1,-1,-1,-1],"loss_changes":[9.135105E3,4.1952002E2,1.2096353E3,2.8672852E1,4.6212225E2,1.3161282E3,5.530215E2,1.7722656E1,2.0486188E2,2.3878842E2,2.2980731E2,6.88744E2,9.6839264E2,3.5470483E2,0E0,0E0,0E0,0E0,0E0,0E0,0E0,0E0,0E0,0E0,0E0,0E0,0E0,0E0,0E0],"parents":[2147483647,0,0,1,1,2,2,3,3,4,4,5,5,6,6,7,7,8,8,9,9,10,10,11,11,12,12,13,13],"right_children":[2,4,6,8,10,12,14,16,18,20,22,24,26,28,-1,-1,-1,-1,-1,-1,-1,-1,-1,-1,-1,-1,-1,-1,-1],"split_conditions":[3E1,1.4E1,7.65E1,9E0,1.9705883E-1,1.890971E-1,4.3E1,1.09E1,8.8E1,1.9E1,2.2E1,1.47E2,5.5E1,3.7142858E-1,-4.6946235E-2,3.1805024E-2,4.189509E-2,-5.340077E-2,3.6670532E-2,5.359769E-3,-5.398443E-2,3.383428E-2,-2.3267781E-2,-4.9339503E-2,5.066852E-2,1.7690254E-2,-4.749129E-2,-5.145933E-2,1.6562978E-2],"split_indices":[48,48,12,48,49,49,48,45,35,48,28,48,48,49,0,0,0,0,0,0,0,0,0,0,0,0,0,0,0],"split_type":[0,0,0,0,0,0,0,0,0,0,0,0,0,0,0,0,0,0,0,0,0,0,0,0,0,0,0,0,0],"sum_hessian":[8.0388657E3,3.9069956E3,4.13187E3,2.897345E3,1.00965063E3,1.4133098E3,2.7185603E3,2.309691E3,5.876542E2,2.5233871E2,7.5731195E2,4.5019107E2,9.631187E2,3.1691672E2,2.4016436E3,2.094088E2,2.100282E3,2.1940401E1,5.6571375E2,1.5346475E2,9.8873955E1,6.8892426E2,6.8387695E1,7.237003E1,3.7782104E2,2.941312E2,6.6898755E2,9.841964E1,2.1849709E2],"tree_param":{"num_deleted":"0","num_feature":"51","num_nodes":"29","size_leaf_vector":"1"}},{"base_weights":[1.9612264E-2,1.0770314E0,-1.0182778E0,1.2844613E0,5.4503685E-1,-2.7712917E-1,-1.3950917E0,1.3502359E0,1.0078484E0,-6.8575305E-1,9.0473104E-1,1.1753801E0,-9.741391E-1,-1.2754503E-1,-4.6166975E-2,2.713824E-2,4.1634604E-2,-5.15665E-2,3.417704E-2,-5.5972632E-2,5.3744167E-3,3.2645788E-2,-1.8718906E-2,-4.828986E-2,5.002142E-2,1.7118042E-2,-4.6701167E-2,-5.00015E-2,1.648359E-2],"categories":[],"categories_nodes":[],"categories_segments":[],"categories_sizes":[],"default_left":[0,0,0,0,0,0,0,0,1,1,1,0,0,0,0,0,0,0,0,0,0,0,0,0,0,0,0,0,0],"id":12,"left_children":[1,3,5,7,9,11,13,15,17,19,21,23,25,27,-1,-1,-1,-1,-1,-1,-1,-1,-1,-1,-1,-1,-1,-1,-1],"loss_changes":[8.757199E3,4.3458203E2,1.1236514E3,4.875244E1,4.9373212E2,1.3789922E3,4.8594873E2,3.561328E1,2.0239111E2,2.5868646E2,2.4308923E2,6.107556E2,8.298279E2,2.8766675E2,0E0,0E0,0E0,0E0,0E0,0E0,0E0,0E0,0E0,0E0,0E0,0E0,0E0,0E0,0E0],"parents":[2147483647,0,0,1,1,2,2,3,3,4,4,5,5,6,6,7,7,8,8,9,9,10,10,11,11,12,12,13,13],"right_children":[2,4,6,8,10,12,14,16,18,20,22,24,26,28,-1,-1,-1,-1,-1,-1,-1,-1,-1,-1,-1,-1,-1,-1,-1],"split_conditions":[3.2E1,1.4E1,7.7E1,9E0,1.8522073E-1,1.890971E-1,4.3E1,1.09E1,8.6E1,9E1,2.2E1,1.47E2,5.4E1,3.7142858E-1,-4.6166975E-2,2.713824E-2,4.1634604E-2,-5.15665E-2,3.417704E-2,-5.5972632E-2,5.3744167E-3,3.2645788E-2,-1.8718906E-2,-4.828986E-2,5.002142E-2,1.7118042E-2,-4.6701167E-2,-5.00015E-2,1.648359E-2],"split_indices":[48,48,14,48,49,49,48,44,33,12,31,48,48,49,0,0,0,0,0,0,0,0,0,0,0,0,0,0,0],"split_type":[0,0,0,0,0,0,0,0,0,0,0,0,0,0,0,0,0,0,0,0,0,0,0,0,0,0,0,0,0],"sum_hessian":[7.975331E3,3.9505095E3,4.0248218E3,2.8401074E3,1.1104021E3,1.3578422E3,2.6669795E3,2.287942E3,5.521655E2,2.5064891E2,8.5975323E2,4.3980658E2,9.180355E2,2.7220255E2,2.394777E3,1.820624E2,2.1058794E3,2.4236914E1,5.279286E2,1.050831E2,1.4556581E2,7.682015E2,9.155175E1,6.531796E1,3.7448862E2,2.5136977E2,6.666658E2,8.230468E1,1.8989786E2],"tree_param":{"num_deleted":"0","num_feature":"51","num_nodes":"29","size_leaf_vector":"1"}},{"base_weights":[2.8565086E-2,8.949071E-1,-7.3409504E-1,1.232617E0,5.9091675E-1,-3.94454E-1,-1.3706346E0,-6.8467075E-1,1.2608291E0,1.192796E0,2.3662141E-1,7.6717466E-2,-1.1209441E0,-1.4507601E0,6.5284896E-1,-5.479592E-2,2.9968334E-2,3.8465135E-2,3.1713855E-3,-4.7193713E-2,3.800643E-2,1.5183808E-2,-1.3358341E-2,8.2736015E-3,-3.1870767E-2,-9.027612E-3,-4.4154767E-2,1.969726E-2,-4.4095345E-2,4.1622046E-2,-4.1393403E-2],"categories":[],"categories_nodes":[],"categories_segments":[],"categories_sizes":[],"default_left":[0,0,1,0,1,0,1,1,1,0,0,0,0,0,0,0,0,0,0,0,0,0,0,0,0,0,0,0,0,0,0],"id":13,"left_children":[1,3,5,7,9,11,13,15,17,19,21,23,25,27,29,-1,-1,-1,-1,-1,-1,-1,-1,-1,-1,-1,-1,-1,-1,-1,-1],"loss_changes":[5.2535127E3,3.8052026E2,9.12938E2,9.706348E1,4.179057E2,9.4511127E2,2.403628E2,5.523107E1,4.240381E1,1.5288391E2,2.2802469E2,3.8057712E2,3.114464E2,5.8919434E1,8.943626E1,0E0,0E0,0E0,0E0,0E0,0E0,0E0,0E0,0E0,0E0,0E0,0E0,0E0,0E0,0E0,0E0],"parents":[2147483647,0,0,1,1,2,2,3,3,4,4,5,5,6,6,7,7,8,8,9,9,10,10,11,11,12,12,13,13,14,14],"right_children":[2,4,6,8,10,12,14,16,18,20,22,24,26,28,30,-1,-1,-1,-1,-1,-1,-1,-1,-1,-1,-1,-1,-1,-1,-1,-1],"split_conditions":[2.006079E-1,4.5144804E-2,2.1E1,1.4E1,1.3E1,5.971944E-1,2.1E0,8.9E1,3.1E1,2.1E2,1.3461539E-1,9.7E1,1.005E2,6.1E1,9.5E1,-5.479592E-2,2.9968334E-2,3.8465135E-2,3.1713855E-3,-4.7193713E-2,3.800643E-2,1.5183808E-2,-1.3358341E-2,8.2736015E-3,-3.1870767E-2,-9.027612E-3,-4.4154767E-2,1.969726E-2,-4.4095345E-2,4.1622046E-2,-4.1393403E-2],"split_indices":[49,49,28,28,28,49,16,13,31,24,49,12,32,33,38,0,0,0,0,0,0,0,0,0,0,0,0,0,0,0,0],"split_type":[0,0,0,0,0,0,0,0,0,0,0,0,0,0,0,0,0,0,0,0,0,0,0,0,0,0,0,0,0,0,0],"sum_hessian":[7.947127E3,3.7205552E3,4.226572E3,1.7594749E3,1.9610803E3,2.7582417E3,1.4683301E3,2.4788227E1,1.7346866E3,7.247888E2,1.2362915E3,1.6741248E3,1.0841168E3,1.412994E3,5.5336025E1,1.4704785E1,1.0083442E1,1.702917E3,3.1769678E1,1.7816128E1,7.0697266E2,8.865604E2,3.4973105E2,1.4264386E3,2.4768617E2,3.2607257E2,7.580443E2,1.2035063E1,1.400959E3,4.1149475E1,1.4186552E1],"tree_param":{"num_deleted":"0","num_feature":"51","num_nodes":"31","size_leaf_vector":"1"}},{"base_weights":[-6.107108E-3,1.0842257E0,-9.982962E-1,1.2330133E0,5.8429825E-1,-2.5512516E-1,-1.381049E0,1.3027564E0,9.94182E-1,-5.354702E-2,7.864782E-1,1.0750006E0,-8.544442E-1,-4.6976647E-1,-4.5006227E-2,2.9804042E-2,4.011571E-2,-3.5109323E-2,3.5002366E-2,2.6838405E-2,-3.1704955E-2,-4.7993343E-2,4.8141465E-2,1.6469255E-2,-4.5597933E-2,-5.082112E-2,1.0359323E-2],"categories":[],"categories_nodes":[],"categories_segments":[],"categories_sizes":[],"default_left":[0,0,0,0,0,0,0,0,1,0,0,0,0,0,0,0,0,0,0,0,0,0,0,0,0,0,0],"id":14,"left_children":[1,3,5,7,9,11,13,15,17,-1,19,21,23,25,-1,-1,-1,-1,-1,-1,-1,-1,-1,-1,-1,-1,-1],"loss_changes":[8.368082E3,2.7250098E2,1.1511353E3,4.4453613E1,4.0948145E2,1.1013475E3,2.8860693E2,2.0431885E1,2.4559784E2,0E0,1.5811963E2,6.133503E2,8.9091986E2,3.1270895E2,0E0,0E0,0E0,0E0,0E0,0E0,0E0,0E0,0E0,0E0,0E0,0E0,0E0],"parents":[2147483647,0,0,1,1,2,2,3,3,4,4,5,5,6,6,7,7,8,8,10,10,11,11,12,12,13,13],"right_children":[2,4,6,8,10,12,14,16,18,-1,20,22,24,26,-1,-1,-1,-1,-1,-1,-1,-1,-1,-1,-1,-1,-1],"split_conditions":[2.8E1,1.5E1,7.7E1,9E0,9.6E-2,1.890971E-1,4.2E1,1.09E1,9.5E1,-5.354702E-2,7.7E1,1.44E2,5.5E1,4.1463414E-1,-4.5006227E-2,2.9804042E-2,4.011571E-2,-3.5109323E-2,3.5002366E-2,2.6838405E-2,-3.1704955E-2,-4.7993343E-2,4.8141465E-2,1.6469255E-2,-4.5597933E-2,-5.082112E-2,1.0359323E-2],"split_indices":[48,48,14,48,49,49,48,44,32,0,8,48,48,49,0,0,0,0,0,0,0,0,0,0,0,0,0],"split_type":[0,0,0,0,0,0,0,0,0,0,0,0,0,0,0,0,0,0,0,0,0,0,0,0,0,0,0],"sum_hessian":[7.731222E3,3.6832988E3,4.047923E3,2.8360923E3,8.472065E2,1.3772954E3,2.670628E3,2.1878667E3,6.482256E2,6.534343E1,7.8186304E2,4.2726694E2,9.5002844E2,3.100672E2,2.3605605E3,2.2545132E2,1.9624154E3,4.6967022E1,6.0125854E2,7.395613E2,4.2301765E1,6.992976E1,3.5733716E2,3.0565164E2,6.4437683E2,1.2311325E2,1.8695393E2],"tree_param":{"num_deleted":"0","num_feature":"51","num_nodes":"27","size_leaf_vector":"1"}},{"base_weights":[1.0278886E-3,1.0660497E0,-1.1779886E0,1.2893322E0,7.466481E-1,3.0082554E-1,-1.386996E0,1.3096712E0,-5.870352E-2,-9.0067464E-1,8.5681266E-1,9.637772E-1,-1.2416091E0,-9.4559115E-1,-1.4931076E0,3.9455544E-2,7.710455E-3,1.8380854E-2,-4.318001E-2,2.7123086E-2,-4.91999E-2,3.9280616E-2,-4.2259354E-2,3.5208445E-2,-4.401366E-2,1.7865358E-2,-3.590779E-2,-4.8965313E-2,-4.41963E-2],"categories":[],"categories_nodes":[],"categories_segments":[],"categories_sizes":[],"default_left":[0,0,0,0,0,1,0,1,0,0,1,0,0,0,0,0,0,0,0,0,0,0,0,0,0,0,0,0,0],"id":15,"left_children":[1,3,5,7,9,11,13,15,-1,17,19,21,23,25,27,-1,-1,-1,-1,-1,-1,-1,-1,-1,-1,-1,-1,-1,-1],"loss_changes":[9.63016E3,2.852412E2,1.1259463E3,1.614458E2,3.0330432E2,4.648808E2,1.4632227E2,1.28359375E1,0E0,8.756328E1,1.8705078E2,2.6399496E2,7.798094E1,2.4309589E2,1.9858398E0,0E0,0E0,0E0,0E0,0E0,0E0,0E0,0E0,0E0,0E0,0E0,0E0,0E0,0E0],"parents":[2147483647,0,0,1,1,2,2,3,3,4,4,5,5,6,6,7,7,9,9,10,10,11,11,12,12,13,13,14,14],"right_children":[2,4,6,8,10,12,14,16,-1,18,20,22,24,26,28,-1,-1,-1,-1,-1,-1,-1,-1,-1,-1,-1,-1,-1,-1],"split_conditions":[2.25E1,1E1,5.9E1,1.25E1,9.5E1,1.3E1,7.5E1,1.29E2,-5.870352E-2,3.61E1,2.9E1,1.96E2,2.3E1,2.7E1,5.1E1,3.9455544E-2,7.710455E-3,1.8380854E-2,-4.318001E-2,2.7123086E-2,-4.91999E-2,3.9280616E-2,-4.2259354E-2,3.5208445E-2,-4.401366E-2,1.7865358E-2,-3.590779E-2,-4.8965313E-2,-4.41963E-2],"split_indices":[50,48,14,50,35,29,14,14,0,40,29,48,50,50,48,0,0,0,0,0,0,0,0,0,0,0,0,0,0],"split_type":[0,0,0,0,0,0,0,0,0,0,0,0,0,0,0,0,0,0,0,0,0,0,0,0,0,0,0,0,0],"sum_hessian":[7.6652974E3,4.0274883E3,3.637809E3,2.366656E3,1.6608324E3,4.5031137E2,3.1874978E3,2.353136E3,1.3519995E1,1.03149506E2,1.5576829E3,3.1551532E2,1.3479605E2,6.21778E2,2.5657197E3,2.340284E3,1.28520565E1,2.695593E1,7.619357E1,1.5300198E3,2.7663124E1,2.7621857E2,3.929677E1,1.0755349E1,1.24040695E2,8.674573E1,5.350323E2,3.00229E2,2.2654907E3],"tree_param":{"num_deleted":"0","num_feature":"51","num_nodes":"29","size_leaf_vector":"1"}},{"base_weights":[1.4338859E-2,1.0259302E0,-1.123951E0,1.220042E0,5.653956E-1,3.4444544E-1,-1.3384705E0,1.2405111E0,-5.6624476E-2,8.854401E-1,-4.0574157E-1,1.0292529E0,-4.32301E-2,-8.208954E-1,-4.4074263E-2,5.7304255E-3,3.750907E-2,2.88525E-2,-5.7687774E-2,-2.9926183E-2,3.2441303E-2,3.961545E-2,-4.142686E-2,-4.534308E-2,-1.534487E-3],"categories":[],"categories_nodes":[],"categories_segments":[],"categories_sizes":[],"default_left":[0,0,0,0,1,1,0,0,0,1,1,0,0,1,0,0,0,0,0,0,0,0,0,0,0],"id":16,"left_children":[1,3,5,7,9,11,13,15,-1,17,19,21,-1,23,-1,-1,-1,-1,-1,-1,-1,-1,-1,-1,-1],"loss_changes":[8.777512E3,3.5924463E2,1.1308447E3,1.8510107E2,3.7392865E2,5.6380884E2,2.090498E2,2.8356934E1,0E0,1.9727783E2,2.6519583E2,2.3723853E2,0E0,3.375503E2,0E0,0E0,0E0,0E0,0E0,0E0,0E0,0E0,0E0,0E0,0E0],"parents":[2147483647,0,0,1,1,2,2,3,3,4,4,5,5,6,6,7,7,9,9,10,10,11,11,13,13],"right_children":[2,4,6,8,10,12,14,16,-1,18,20,22,-1,24,-1,-1,-1,-1,-1,-1,-1,-1,-1,-1,-1],"split_conditions":[2.4E1,1.6E1,5.9E1,1.55E1,1.9E1,1.3E1,7.5E1,8.6E1,-5.6624476E-2,7.5E1,1.48E2,1.96E2,-4.32301E-2,1.22E2,-4.4074263E-2,5.7304255E-3,3.750907E-2,2.88525E-2,-5.7687774E-2,-2.9926183E-2,3.2441303E-2,3.961545E-2,-4.142686E-2,-4.534308E-2,-1.534487E-3],"split_indices":[50,48,14,50,30,30,14,34,0,10,33,48,0,33,0,0,0,0,0,0,0,0,0,0,0],"split_type":[0,0,0,0,0,0,0,0,0,0,0,0,0,0,0,0,0,0,0,0,0,0,0,0,0],"sum_hessian":[7.6187866E3,4.0340425E3,3.5847441E3,2.8354194E3,1.198623E3,4.567297E2,3.1280144E3,2.8180906E3,1.7328775E1,9.017312E2,2.9689185E2,3.3076727E2,1.2596245E2,6.3362616E2,2.4943882E3,2.6521978E1,2.7915686E3,8.7919214E2,2.2539032E1,2.1289578E2,8.3996086E1,2.9594815E2,3.481911E1,3.3291257E2,3.007136E2],"tree_param":{"num_deleted":"0","num_feature":"51","num_nodes":"25","size_leaf_vector":"1"}},{"base_weights":[-6.0206787E-3,9.9982077E-1,-1.1439822E0,1.2411832E0,6.2444574E-1,2.845104E-1,-1.3485426E0,1.2505287E0,7.0049036E-1,1.1665281E0,3.3086768E-1,9.635243E-1,-4.2626057E-2,-9.3648803E-1,-4.3466292E-2,1.6381107E-2,3.7715476E-2,-1.1094551E-2,4.1198753E-2,3.7843555E-2,-5.3369626E-2,2.4254508E-2,-8.073056E-3,-4.3459564E-2,4.0027432E-2,-4.4631835E-2,-8.362628E-3],"categories":[],"categories_nodes":[],"categories_segments":[],"categories_sizes":[],"default_left":[0,0,0,1,1,1,0,0,0,0,0,1,0,1,0,0,0,0,0,0,0,0,0,0,0,0,0],"id":17,"left_children":[1,3,5,7,9,11,13,15,17,19,21,23,-1,25,-1,-1,-1,-1,-1,-1,-1,-1,-1,-1,-1,-1,-1],"loss_changes":[8.513644E3,3.559729E2,1.0206553E3,1.018457E1,2.4564221E2,5.1074106E2,1.2327246E2,9.497559E0,3.3895977E1,1.5636609E2,2.8931778E2,2.8557068E2,0E0,2.1787695E2,0E0,0E0,0E0,0E0,0E0,0E0,0E0,0E0,0E0,0E0,0E0,0E0,0E0],"parents":[2147483647,0,0,1,1,2,2,3,3,4,4,5,5,6,6,7,7,8,8,9,9,10,10,11,11,13,13],"right_children":[2,4,6,8,10,12,14,16,18,20,22,24,-1,26,-1,-1,-1,-1,-1,-1,-1,-1,-1,-1,-1,-1,-1],"split_conditions":[2.4E1,9E0,5.9E1,3.1E1,1.3E1,1.3E1,7.5E1,4.9E0,4.3E1,2.05E1,7.8E1,1.22E2,-4.2626057E-2,1.24E2,-4.3466292E-2,1.6381107E-2,3.7715476E-2,-1.1094551E-2,4.1198753E-2,3.7843555E-2,-5.3369626E-2,2.4254508E-2,-8.073056E-3,-4.3459564E-2,4.0027432E-2,-4.4631835E-2,-8.362628E-3],"split_indices":[50,50,14,31,31,31,14,44,31,50,14,34,0,34,0,0,0,0,0,0,0,0,0,0,0,0,0],"split_type":[0,0,0,0,0,0,0,0,0,0,0,0,0,0,0,0,0,0,0,0,0,0,0,0,0,0,0],"sum_hessian":[7.4340264E3,3.9461707E3,3.487856E3,2.3988528E3,1.547318E3,4.367385E2,3.0511174E3,2.3553318E3,4.3520985E1,5.413835E2,1.0059346E3,3.130308E2,1.2370771E2,6.017002E2,2.4494172E3,2.3732727E1,2.3315989E3,1.708839E1,2.6432596E1,5.2562195E2,1.57615385E1,5.597821E2,4.461524E2,4.0889717E1,2.7214108E2,3.2589505E2,2.7580515E2],"tree_param":{"num_deleted":"0","num_feature":"51","num_nodes":"27","size_leaf_vector":"1"}},{"base_weights":[2.5417058E-2,9.9134547E-1,-1.0767099E0,1.228023E0,6.886653E-1,1.733345E-2,-1.3641635E0,1.2399029E0,4.2302662E-1,7.555425E-1,-4.991955E-2,1.2250608E0,-4.4583518E-2,2.4125198E-2,-4.285497E-2,1.829092E-2,3.737532E-2,3.5257865E-2,-1.4087656E-2,-5.2208878E-2,2.3849381E-2,-4.4587653E-2,4.6402786E-2,-4.596443E-2,3.9782923E-2],"categories":[],"categories_nodes":[],"categories_segments":[],"categories_sizes":[],"default_left":[0,0,0,1,1,0,0,0,0,0,0,0,0,1,0,0,0,0,0,0,0,0,0,0,0],"id":18,"left_children":[1,3,5,7,9,11,13,15,17,19,-1,21,-1,23,-1,-1,-1,-1,-1,-1,-1,-1,-1,-1,-1],"loss_changes":[8.051796E3,2.8687207E2,1.1111421E3,2.0390625E1,2.8146362E2,1.3417343E3,2.5008691E2,6.626953E0,2.5356707E1,1.7254877E2,0E0,3.6204114E2,0E0,2.5895084E2,0E0,0E0,0E0,0E0,0E0,0E0,0E0,0E0,0E0,0E0,0E0],"parents":[2147483647,0,0,1,1,2,2,3,3,4,4,5,5,6,6,7,7,8,8,9,9,11,11,13,13],"right_children":[2,4,6,8,10,12,14,16,18,20,-1,22,-1,24,-1,-1,-1,-1,-1,-1,-1,-1,-1,-1,-1],"split_conditions":[2.4E1,8E0,1.890971E-1,1.19E2,2.9E1,7E1,2.75E1,4.5E0,1.8E1,8.8E1,-4.991955E-2,7.75E1,-4.4583518E-2,8.716665E1,-4.285497E-2,1.829092E-2,3.737532E-2,3.5257865E-2,-1.4087656E-2,-5.2208878E-2,2.3849381E-2,-4.4587653E-2,4.6402786E-2,-4.596443E-2,3.9782923E-2],"split_indices":[50,50,49,13,30,14,50,44,31,32,0,50,0,20,0,0,0,0,0,0,0,0,0,0,0],"split_type":[0,0,0,0,0,0,0,0,0,0,0,0,0,0,0,0,0,0,0,0,0,0,0,0,0],"sum_hessian":[7.559388E3,4.0287737E3,3.5306145E3,2.257276E3,1.7714978E3,7.349477E2,2.7956667E3,2.223261E3,3.4014763E1,1.7238939E3,4.7603813E1,4.0779852E2,3.2714917E2,1.23804375E2,2.6718623E3,2.285641E1,2.2004048E3,1.8175993E1,1.5838768E1,2.5434416E1,1.6984596E3,4.2452538E1,3.65346E2,5.6198647E1,6.760573E1],"tree_param":{"num_deleted":"0","num_feature":"51","num_nodes":"25","size_leaf_vector":"1"}},{"base_weights":[4.690154E-3,9.6278715E-1,-1.1022269E0,1.1958498E0,6.1427003E-1,3.202618E-1,-1.3131795E0,1.2356851E0,8.9826185E-1,7.270251E-1,-1.0224072E0,1.1933548E0,-4.1842967E-2,-5.9515808E-2,-1.3804661E0,4.097983E-3,3.7276678E-2,3.094559E-2,-5.8529876E-2,-5.07593E-2,2.3864482E-2,-1.0604794E-2,-5.8103517E-2,-4.2065322E-2,4.1743644E-2,-4.485894E-2,3.235612E-2,-3.1658843E-2,-4.2356305E-2],"categories":[],"categories_nodes":[],"categories_segments":[],"categories_sizes":[],"default_left":[0,0,0,0,0,0,0,0,0,1,1,0,0,1,0,0,0,0,0,0,0,0,0,0,0,0,0,0,0],"id":19,"left_children":[1,3,5,7,9,11,13,15,17,19,21,23,-1,25,27,-1,-1,-1,-1,-1,-1,-1,-1,-1,-1,-1,-1,-1,-1],"loss_changes":[7.762729E3,3.1705127E2,1.0200122E3,2.5412598E1,2.9241595E2,6.623508E2,2.4920508E2,1.5125E1,1.1211928E2,2.4706769E2,6.1028786E1,1.5443634E2,0E0,2.529994E2,2.5444336E1,0E0,0E0,0E0,0E0,0E0,0E0,0E0,0E0,0E0,0E0,0E0,0E0,0E0,0E0],"parents":[2147483647,0,0,1,1,2,2,3,3,4,4,5,5,6,6,7,7,8,8,9,9,10,10,11,11,13,13,14,14],"right_children":[2,4,6,8,10,12,14,16,18,20,22,24,-1,26,28,-1,-1,-1,-1,-1,-1,-1,-1,-1,-1,-1,-1,-1,-1],"split_conditions":[2.4E1,9E0,5.9E1,1E1,7.5E1,1.890971E-1,2.75E1,4.5E0,9.8E1,8.8E1,1.08E2,1.47E2,-4.1842967E-2,8.716665E1,6.7E1,4.097983E-3,3.7276678E-2,3.094559E-2,-5.8529876E-2,-5.07593E-2,2.3864482E-2,-1.0604794E-2,-5.8103517E-2,-4.2065322E-2,4.1743644E-2,-4.485894E-2,3.235612E-2,-3.1658843E-2,-4.2356305E-2],"split_indices":[50,50,14,48,9,49,50,45,15,33,33,48,0,20,14,0,0,0,0,0,0,0,0,0,0,0,0,0,0],"split_type":[0,0,0,0,0,0,0,0,0,0,0,0,0,0,0,0,0,0,0,0,0,0,0,0,0,0,0,0,0],"sum_hessian":[7.315654E3,3.9216248E3,3.394029E3,2.3469849E3,1.5746399E3,4.3813058E2,2.9558987E3,2.0640488E3,2.829361E2,1.4742478E3,1.0039218E2,2.907706E2,1.4736E2,1.5083524E2,2.8050632E3,1.3172943E1,2.0508757E3,2.7154706E2,1.1389038E1,3.9227364E1,1.4350204E3,5.964288E1,4.0749306E1,1.972109E1,2.710495E2,6.6454926E1,8.438032E1,2.5346997E2,2.5515933E3],"tree_param":{"num_deleted":"0","num_feature":"51","num_nodes":"29","size_leaf_vector":"1"}},{"base_weights":[2.3649804E-2,9.6913844E-1,-1.0681034E0,1.1825801E0,6.415458E-1,3.0244982E-1,-1.2651677E0,-1.4843483E-3,1.1894852E0,1.1678118E0,3.7881377E-1,1.16013E0,-1.1847482E0,-7.7272415E-1,-4.1915417E-2,1.08639235E-2,3.5919946E-2,-4.9321153E-3,3.9378565E-2,2.5264816E-2,-7.7919825E-3,-4.1702077E-2,4.1099235E-2,3.5660297E-2,-4.133263E-2,2.736458E-2,-3.313832E-2],"categories":[],"categories_nodes":[],"categories_segments":[],"categories_sizes":[],"default_left":[0,0,0,0,1,0,0,0,0,1,0,0,0,0,0,0,0,0,0,0,0,0,0,0,0,0,0],"id":20,"left_children":[1,3,5,7,9,11,13,-1,15,17,19,21,23,25,-1,-1,-1,-1,-1,-1,-1,-1,-1,-1,-1,-1,-1],"loss_changes":[7.522422E3,2.7137134E2,9.1432544E2,2.0326904E1,2.126175E2,5.470364E2,1.8988086E2,0E0,1.4227051E1,9.960266E1,3.0635782E2,1.4919952E2,7.522505E1,3.5423413E2,0E0,0E0,0E0,0E0,0E0,0E0,0E0,0E0,0E0,0E0,0E0,0E0,0E0],"parents":[2147483647,0,0,1,1,2,2,3,3,4,4,5,5,6,6,8,8,9,9,10,10,11,11,12,12,13,13],"right_children":[2,4,6,8,10,12,14,-1,16,18,20,22,24,26,-1,-1,-1,-1,-1,-1,-1,-1,-1,-1,-1,-1,-1],"split_conditions":[2.3E1,9E0,5.9E1,1.1E1,1.3E1,1.890971E-1,7.5E1,-1.4843483E-3,5.3E1,9.1E1,7.8E1,7.65E1,2.4E1,1.890971E-1,-4.1915417E-2,1.08639235E-2,3.5919946E-2,-4.9321153E-3,3.9378565E-2,2.5264816E-2,-7.7919825E-3,-4.1702077E-2,4.1099235E-2,3.5660297E-2,-4.133263E-2,2.736458E-2,-3.313832E-2],"split_indices":[50,50,14,31,28,49,14,0,22,33,14,50,50,49,0,0,0,0,0,0,0,0,0,0,0,0,0],"split_type":[0,0,0,0,0,0,0,0,0,0,0,0,0,0,0,0,0,0,0,0,0,0,0,0,0,0,0],"sum_hessian":[7.283475E3,3.9033672E3,3.3801082E3,2.3601172E3,1.5432499E3,4.247132E2,2.955395E3,1.3004033E1,2.3471133E3,5.1147284E2,1.0317771E3,2.6968854E2,1.5502467E2,6.278414E2,2.3275537E3,2.3055986E1,2.3240571E3,5.0050495E1,4.6142233E2,5.976353E2,4.341417E2,1.9612799E1,2.5007573E2,1.0843613E1,1.4418106E2,1.0269504E2,5.2514636E2],"tree_param":{"num_deleted":"0","num_feature":"51","num_nodes":"27","size_leaf_vector":"1"}},{"base_weights":[-6.300772E-3,9.297867E-1,-1.0466365E0,1.1494689E0,6.369754E-1,-2.203498E-1,-1.3578773E0,1.1559345E0,1.9474826E-3,1.1558686E0,3.3539766E-1,1.1283815E0,-1.0884502E0,-7.2839516E-1,-4.1336402E-2,2.7941896E-2,3.557826E-2,3.7457682E-2,-5.702002E-2,3.447867E-2,-1.4935663E-3,-4.3241255E-2,4.5563776E-2,2.0658694E-2,-4.2404298E-2,3.1966105E-2,-4.5445524E-2],"categories":[],"categories_nodes":[],"categories_segments":[],"categories_sizes":[],"default_left":[0,0,0,1,1,0,0,0,0,0,0,0,0,0,0,0,0,0,0,0,0,0,0,0,0,0,0],"id":21,"left_children":[1,3,5,7,9,11,13,15,-1,17,19,21,23,25,-1,-1,-1,-1,-1,-1,-1,-1,-1,-1,-1,-1,-1],"loss_changes":[6.859127E3,2.3683545E2,8.571655E2,1.4562256E1,2.4849359E2,1.0740376E3,2.8287598E1,1.1747314E1,0E0,1.7044733E2,3.1715463E2,3.6489523E2,3.2425684E2,1.1474721E2,0E0,0E0,0E0,0E0,0E0,0E0,0E0,0E0,0E0,0E0,0E0,0E0,0E0],"parents":[2147483647,0,0,1,1,2,2,3,3,4,4,5,5,6,6,7,7,9,9,10,10,11,11,12,12,13,13],"right_children":[2,4,6,8,10,12,14,16,-1,18,20,22,24,26,-1,-1,-1,-1,-1,-1,-1,-1,-1,-1,-1,-1,-1],"split_conditions":[2.3E1,8.5E0,7.2E1,1.29E2,1.3E1,1.890971E-1,2.6E1,1.65E1,1.9474826E-3,1.95E1,4.3E1,7.75E1,2.75E1,7.5E1,-4.1336402E-2,2.7941896E-2,3.557826E-2,3.7457682E-2,-5.702002E-2,3.447867E-2,-1.4935663E-3,-4.3241255E-2,4.5563776E-2,2.0658694E-2,-4.2404298E-2,3.1966105E-2,-4.5445524E-2],"split_indices":[50,50,14,14,28,49,50,28,0,50,9,50,50,14,0,0,0,0,0,0,0,0,0,0,0,0,0],"split_type":[0,0,0,0,0,0,0,0,0,0,0,0,0,0,0,0,0,0,0,0,0,0,0,0,0,0,0],"sum_hessian":[7.039333E3,3.7053757E3,3.3339573E3,2.1135144E3,1.5918613E3,9.1323224E2,2.420725E3,2.100767E3,1.2747431E1,5.829108E2,1.0089505E3,3.573373E2,5.558949E2,7.701207E1,2.343713E3,2.5559918E2,1.8451678E3,5.6692865E2,1.5982193E1,3.2291785E2,6.8603265E2,4.638469E1,3.109526E2,8.555888E1,4.7033603E2,2.3216827E1,5.3795242E1],"tree_param":{"num_deleted":"0","num_feature":"51","num_nodes":"27","size_leaf_vector":"1"}},{"base_weights":[5.444373E-3,9.2024326E-1,-1.0364403E0,1.1321077E0,6.1412114E-1,-4.9954128E-2,-1.2885624E0,-8.668102E-3,1.14204E0,6.7605036E-1,-4.7538076E-2,1.1377661E0,-4.2532213E-2,-1.2017516E-2,-4.0889602E-2,1.6702568E-3,3.4456074E-2,2.1710759E-2,-5.500053E-2,-4.2669546E-2,4.4931807E-2,-4.5405988E-2,3.475284E-2],"categories":[],"categories_nodes":[],"categories_segments":[],"categories_sizes":[],"default_left":[0,0,0,0,1,0,0,0,0,1,0,0,0,1,0,0,0,0,0,0,0,0,0],"id":22,"left_children":[1,3,5,7,9,11,13,-1,15,17,-1,19,-1,21,-1,-1,-1,-1,-1,-1,-1,-1,-1],"loss_changes":[6.6673696E3,2.4001831E2,8.1315015E2,3.1779541E1,2.1012659E2,1.0882455E3,2.4728125E2,0E0,1.5163818E1,1.8039856E2,0E0,3.3467044E2,0E0,2.593863E2,0E0,0E0,0E0,0E0,0E0,0E0,0E0,0E0,0E0],"parents":[2147483647,0,0,1,1,2,2,3,3,4,4,5,5,6,6,8,8,9,9,11,11,13,13],"right_children":[2,4,6,8,10,12,14,-1,16,18,-1,20,-1,22,-1,-1,-1,-1,-1,-1,-1,-1,-1],"split_conditions":[2.3E1,9E0,1.890971E-1,5.4E1,2.9E1,6.95E1,2.75E1,-8.668102E-3,4.9E0,7.9E1,-4.7538076E-2,7.75E1,-4.2532213E-2,8.716665E1,-4.0889602E-2,1.6702568E-3,3.4456074E-2,2.1710759E-2,-5.500053E-2,-4.2669546E-2,4.4931807E-2,-4.5405988E-2,3.475284E-2],"split_indices":[50,50,49,22,30,12,50,0,46,10,0,50,0,20,0,0,0,0,0,0,0,0,0],"split_type":[0,0,0,0,0,0,0,0,0,0,0,0,0,0,0,0,0,0,0,0,0,0,0],"sum_hessian":[6.9913584E3,3.7228972E3,3.268461E3,2.1967932E3,1.5261041E3,6.65873E2,2.602588E3,1.4787858E1,2.1820051E3,1.4856887E3,4.0415394E1,3.5653677E2,3.0933624E2,1.4357758E2,2.4590103E3,1.3174884E1,2.1688303E3,1.459444E3,2.6244835E1,4.3189247E1,3.1334753E2,6.26744E1,8.090318E1],"tree_param":{"num_deleted":"0","num_feature":"51","num_nodes":"23","size_leaf_vector":"1"}},{"base_weights":[3.2666605E-5,8.77975E-1,-1.0144767E0,1.1387808E0,5.133131E-1,-1.6578317E-1,-1.326468E0,3.116144E-1,1.1472701E0,5.8932984E-1,-1.3572505E0,-1.316081E0,4.6713486E-1,-4.463285E-1,-4.044784E-2,6.262795E-5,1.8368976E-2,3.4709074E-2,1.3711409E-2,-4.936404E-2,1.9510224E-2,3.2008696E-2,-5.632426E-2,-4.15376E-2,-4.93001E-3,3.4795057E-2,-2.7457E-2,3.0241048E-2,-4.355859E-2],"categories":[],"categories_nodes":[],"categories_segments":[],"categories_sizes":[],"default_left":[0,0,0,0,1,1,0,0,1,0,0,0,1,0,0,0,0,0,0,0,0,0,0,0,0,0,0,0,0],"id":23,"left_children":[1,3,5,7,9,11,13,15,17,19,21,23,25,27,-1,-1,-1,-1,-1,-1,-1,-1,-1,-1,-1,-1,-1,-1,-1],"loss_changes":[6.144871E3,3.5041797E2,8.4687085E2,1.4268311E1,2.2135568E2,6.2938354E2,4.3499023E1,2.2397578E0,1.3052246E1,2.0479956E2,8.0925446E1,2.3594666E1,5.36382E2,9.019629E1,0E0,0E0,0E0,0E0,0E0,0E0,0E0,0E0,0E0,0E0,0E0,0E0,0E0,0E0,0E0],"parents":[2147483647,0,0,1,1,2,2,3,3,4,4,5,5,6,6,7,7,8,8,9,9,10,10,11,11,12,12,13,13],"right_children":[2,4,6,8,10,12,14,16,18,20,22,24,26,28,-1,-1,-1,-1,-1,-1,-1,-1,-1,-1,-1,-1,-1,-1,-1],"split_conditions":[2.4E1,8.5E0,7.1E1,5.3E1,7.5E1,1.22E2,2.6E1,9.9E1,1.2E2,8.8E1,9E0,3.9E1,1.3E1,9.5E1,-4.044784E-2,6.262795E-5,1.8368976E-2,3.4709074E-2,1.3711409E-2,-4.936404E-2,1.9510224E-2,3.2008696E-2,-5.632426E-2,-4.15376E-2,-4.93001E-3,3.4795057E-2,-2.7457E-2,3.0241048E-2,-4.355859E-2],"split_indices":[50,50,12,22,8,34,50,37,12,33,50,29,29,38,0,0,0,0,0,0,0,0,0,0,0,0,0,0,0],"split_type":[0,0,0,0,0,0,0,0,0,0,0,0,0,0,0,0,0,0,0,0,0,0,0,0,0,0,0,0,0],"sum_hessian":[6.8950884E3,3.6965303E3,3.198558E3,2.1525256E3,1.5440045E3,8.606798E2,2.3378784E3,2.2752903E1,2.1297727E3,1.4850768E3,5.8927807E1,3.047715E2,5.5590826E2,5.763902E1,2.2802393E3,1.2367836E1,1.0385066E1,2.0987832E3,3.098951E1,3.804198E1,1.4470348E3,1.0006087E1,4.8921722E1,2.8719794E2,1.7573582E1,3.7059738E2,1.8531088E2,2.3519787E1,3.4119232E1],"tree_param":{"num_deleted":"0","num_feature":"51","num_nodes":"29","size_leaf_vector":"1"}},{"base_weights":[-1.5870157E-3,9.6879715E-1,-9.313103E-1,1.0924389E0,5.870941E-1,-2.4734735E-1,-1.2710695E0,-6.241823E-3,1.1002913E0,-5.4525305E-2,7.725719E-1,9.130892E-1,-7.9520637E-1,-3.4844008E-1,-4.0194243E-2,8.255119E-3,3.3419345E-2,-4.7868446E-2,2.491792E-2,-4.5351237E-2,4.438546E-2,2.085943E-2,-4.096669E-2,-5.348664E-2,6.621625E-3],"categories":[],"categories_nodes":[],"categories_segments":[],"categories_sizes":[],"default_left":[0,0,0,0,0,0,0,0,0,0,0,0,0,0,0,0,0,0,0,0,0,0,0,0,0],"id":24,"left_children":[1,3,5,7,9,11,13,-1,15,-1,17,19,21,23,-1,-1,-1,-1,-1,-1,-1,-1,-1,-1,-1],"loss_changes":[6.1323804E3,1.5551025E2,8.059114E2,2.6175049E1,3.6764288E2,7.355402E2,1.459502E2,0E0,2.7424072E1,0E0,1.07160034E2,5.1428345E2,6.6973566E2,1.3449188E2,0E0,0E0,0E0,0E0,0E0,0E0,0E0,0E0,0E0,0E0,0E0],"parents":[2147483647,0,0,1,1,2,2,3,3,4,4,5,5,6,6,8,8,10,10,11,11,12,12,13,13],"right_children":[2,4,6,8,10,12,14,-1,16,-1,18,20,22,24,-1,-1,-1,-1,-1,-1,-1,-1,-1,-1,-1],"split_conditions":[1.8E1,1.5E1,7.6E1,4.5E0,9.6E-2,1.890971E-1,2.25E1,-6.241823E-3,3.572222E1,-5.4525305E-2,8.9E1,1.47E2,2.75E1,2.7862597E-1,-4.0194243E-2,8.255119E-3,3.3419345E-2,-4.7868446E-2,2.491792E-2,-4.5351237E-2,4.438546E-2,2.085943E-2,-4.096669E-2,-5.348664E-2,6.621625E-3],"split_indices":[50,48,14,44,49,49,50,0,41,0,33,48,50,49,0,0,0,0,0,0,0,0,0,0,0],"split_type":[0,0,0,0,0,0,0,0,0,0,0,0,0,0,0,0,0,0,0,0,0,0,0,0,0],"sum_hessian":[6.79323E3,3.3238362E3,3.4693938E3,2.5075884E3,8.162479E2,1.1526887E3,2.316705E3,1.4667345E1,2.492921E3,5.7153305E1,7.590946E2,3.6918695E2,7.835018E2,1.6157599E2,2.1551292E3,4.148518E1,2.4514358E3,1.6845858E1,7.422487E2,6.924477E1,2.999422E2,2.1666585E2,5.6683594E2,4.4736916E1,1.1683907E2],"tree_param":{"num_deleted":"0","num_feature":"51","num_nodes":"25","size_leaf_vector":"1"}},{"base_weights":[2.7196458E-2,8.9765024E-1,-9.9229383E-1,1.0171609E0,4.1918573E-1,-2.1246958E-1,-1.2907643E0,1.0278561E0,-5.1533945E-2,-5.4758605E-2,8.09231E-1,1.0549475E0,-1.0326645E0,-5.541054E-1,-3.96516E-2,3.331724E-2,2.5613304E-2,2.9005233E-2,-5.135864E-2,-4.1612573E-2,4.275752E-2,1.967697E-2,-4.0648393E-2,2.674512E-2,-4.4181876E-2],"categories":[],"categories_nodes":[],"categories_segments":[],"categories_sizes":[],"default_left":[0,0,0,0,0,0,0,0,0,0,1,0,0,0,0,0,0,0,0,0,0,0,0,0,0],"id":25,"left_children":[1,3,5,7,9,11,13,15,-1,-1,17,19,21,23,-1,-1,-1,-1,-1,-1,-1,-1,-1,-1,-1],"loss_changes":[6.032374E3,2.0868164E2,7.280054E2,8.92395E1,6.4755505E2,9.056139E2,4.9968506E1,3.998755E1,0E0,0E0,2.5310721E2,3.135809E2,2.8955737E2,1.2865851E2,0E0,0E0,0E0,0E0,0E0,0E0,0E0,0E0,0E0,0E0,0E0],"parents":[2147483647,0,0,1,1,2,2,3,3,4,4,5,5,6,6,7,7,10,10,11,11,12,12,13,13],"right_children":[2,4,6,8,10,12,14,16,-1,-1,18,20,22,24,-1,-1,-1,-1,-1,-1,-1,-1,-1,-1,-1],"split_conditions":[2.25E1,2.2E1,7.2E1,1.85E1,2.4E-1,1.890971E-1,2.6E1,1E1,-5.1533945E-2,-5.4758605E-2,2.3E1,1.47E2,2.75E1,7.6E1,-3.96516E-2,3.331724E-2,2.5613304E-2,2.9005233E-2,-5.135864E-2,-4.1612573E-2,4.275752E-2,1.967697E-2,-4.0648393E-2,2.674512E-2,-4.4181876E-2],"split_indices":[50,48,14,50,49,49,50,48,0,0,30,48,50,14,0,0,0,0,0,0,0,0,0,0,0],"split_type":[0,0,0,0,0,0,0,0,0,0,0,0,0,0,0,0,0,0,0,0,0,0,0,0,0],"sum_hessian":[6.7936626E3,3.6648792E3,3.1287834E3,2.9304517E3,7.344275E2,8.6708325E2,2.2617002E3,2.9203167E3,1.0135186E1,1.07605835E2,6.2682166E2,3.4039267E2,5.2669055E2,9.286237E1,2.168838E3,1.9719545E3,9.4836206E2,5.9113965E2,3.568198E1,4.4061207E1,2.9633145E2,8.403214E1,4.4265845E2,3.606236E1,5.680002E1],"tree_param":{"num_deleted":"0","num_feature":"51","num_nodes":"25","size_leaf_vector":"1"}},{"base_weights":[-2.4809068E-2,8.6350137E-1,-7.878628E-1,1.0455348E0,5.5488724E-1,-1.5519284E-1,-1.1147319E0,7.0147264E-1,1.0852193E0,6.20691E-1,-6.3713476E-2,8.676632E-1,-6.1232084E-1,-2.0460942E-1,-3.9058402E-2,1.143542E-2,3.602644E-2,9.020124E-3,3.29653E-2,-1.36780515E-2,2.305855E-2,-4.410689E-2,4.2169645E-2,1.5595536E-2,-3.978515E-2,-4.8788812E-2,1.6052185E-2],"categories":[],"categories_nodes":[],"categories_segments":[],"categories_sizes":[],"default_left":[0,0,0,0,1,0,0,1,0,1,0,0,0,0,0,0,0,0,0,0,0,0,0,0,0,0,0],"id":26,"left_children":[1,3,5,7,9,11,13,15,17,19,-1,21,23,25,-1,-1,-1,-1,-1,-1,-1,-1,-1,-1,-1,-1,-1],"loss_changes":[4.3968647E3,1.670625E2,7.211333E2,2.4006836E1,1.9928549E2,5.5796484E2,3.9126E2,3.1017555E1,1.720105E1,1.7453537E2,0E0,4.6781244E2,6.6777155E2,4.171379E2,0E0,0E0,0E0,0E0,0E0,0E0,0E0,0E0,0E0,0E0,0E0,0E0,0E0],"parents":[2147483647,0,0,1,1,2,2,3,3,4,4,5,5,6,6,7,7,8,8,9,9,11,11,12,12,13,13],"right_children":[2,4,6,8,10,12,14,16,18,20,-1,22,24,26,-1,-1,-1,-1,-1,-1,-1,-1,-1,-1,-1,-1,-1],"split_conditions":[2.6E1,1E1,7.6E1,1.09E1,1.52E2,1.890971E-1,4.3E1,9.7E1,3.57E1,9.7E1,-6.3713476E-2,1.47E2,5.5E1,3.8367346E-1,-3.9058402E-2,1.143542E-2,3.602644E-2,9.020124E-3,3.29653E-2,-1.36780515E-2,2.305855E-2,-4.410689E-2,4.2169645E-2,1.5595536E-2,-3.978515E-2,-4.8788812E-2,1.6052185E-2],"split_indices":[48,48,14,44,34,49,48,37,41,34,0,48,48,49,0,0,0,0,0,0,0,0,0,0,0,0,0],"split_type":[0,0,0,0,0,0,0,0,0,0,0,0,0,0,0,0,0,0,0,0,0,0,0,0,0,0,0],"sum_hessian":[6.4826953E3,2.9953076E3,3.4873877E3,1.8808212E3,1.1144865E3,1.1890953E3,2.2982922E3,1.9862488E2,1.6821963E3,1.0893008E3,2.5185709E1,3.6665784E2,8.224375E2,3.9291306E2,1.9053792E3,1.2328424E2,7.534064E1,2.9626234E1,1.6525701E3,1.3100394E2,9.582968E2,6.7907585E1,2.9875024E2,3.1818982E2,5.0424768E2,1.3369208E2,2.5922098E2],"tree_param":{"num_deleted":"0","num_feature":"51","num_nodes":"27","size_leaf_vector":"1"}},{"base_weights":[-7.732709E-3,8.2072693E-1,-9.7923577E-1,1.0326232E0,4.0440497E-1,-2.0521851E-1,-1.2781997E0,1.0559647E0,-5.619934E-2,-6.145195E-1,7.150803E-1,1.0374051E0,-1.0041362E0,-6.620399E-1,-3.895192E-2,3.1973947E-2,9.149184E-3,6.9984817E-4,-5.0849758E-2,2.6696626E-2,-2.3043262E-2,-4.0425155E-2,4.1709803E-2,1.8094905E-2,-3.982035E-2,-4.3938026E-2,3.4306224E-2],"categories":[],"categories_nodes":[],"categories_segments":[],"categories_sizes":[],"default_left":[0,0,0,0,0,0,0,1,0,0,1,0,0,0,0,0,0,0,0,0,0,0,0,0,0,0,0],"id":27,"left_children":[1,3,5,7,9,11,13,15,-1,17,19,21,23,25,-1,-1,-1,-1,-1,-1,-1,-1,-1,-1,-1,-1,-1],"loss_changes":[5.2445674E3,3.092771E2,6.9335474E2,1.6186548E2,3.7749673E2,8.3415155E2,2.5004395E1,1.628711E1,0E0,1.925188E2,2.3802222E2,2.8060403E2,2.6724823E2,1.0900994E2,0E0,0E0,0E0,0E0,0E0,0E0,0E0,0E0,0E0,0E0,0E0,0E0,0E0],"parents":[2147483647,0,0,1,1,2,2,3,3,4,4,5,5,6,6,7,7,9,9,10,10,11,11,12,12,13,13],"right_children":[2,4,6,8,10,12,14,16,-1,18,20,22,24,26,-1,-1,-1,-1,-1,-1,-1,-1,-1,-1,-1,-1,-1],"split_conditions":[2.3E1,1.4E1,7.2E1,1.45E1,2.0833333E-1,1.890971E-1,2.6E1,1.22E2,-5.619934E-2,2.2E1,2.2E1,1.47E2,2.75E1,5E1,-3.895192E-2,3.1973947E-2,9.149184E-3,6.9984817E-4,-5.0849758E-2,2.6696626E-2,-2.3043262E-2,-4.0425155E-2,4.1709803E-2,1.8094905E-2,-3.982035E-2,-4.3938026E-2,3.4306224E-2],"split_indices":[50,48,14,50,49,49,50,14,0,48,31,48,50,48,0,0,0,0,0,0,0,0,0,0,0,0,0],"split_type":[0,0,0,0,0,0,0,0,0,0,0,0,0,0,0,0,0,0,0,0,0,0,0,0,0,0,0],"sum_hessian":[6.512179E3,3.5149636E3,2.9972153E3,2.3272551E3,1.1877085E3,8.361447E2,2.1610708E3,2.3100078E3,1.724717E1,2.7698865E2,9.1071985E2,3.2692642E2,5.092183E2,7.089283E1,2.090178E3,2.2791921E3,3.0815783E1,1.7534154E2,1.0164712E2,8.154761E2,9.52438E1,4.137953E1,2.8554688E2,8.4912315E1,4.2430597E2,4.9377945E1,2.1514883E1],"tree_param":{"num_deleted":"0","num_feature":"51","num_nodes":"27","size_leaf_vector":"1"}},{"base_weights":[-4.3775283E-2,7.720158E-1,-1.0014056E0,1.0380284E0,4.2293134E-1,-8.569334E-2,-1.230026E0,1.0507414E0,2.604942E-1,6.7046964E-1,-2.7059528E-1,1.0472621E0,-3.9854832E-2,-5.7111364E-2,-3.86082E-2,7.5371424E-3,3.1790715E-2,3.0938644E-2,-2.0051088E-2,-1.2272326E-3,2.675843E-2,-2.3171268E-3,-5.691904E-2,-3.940182E-2,4.0959176E-2,-4.205554E-2,3.3841375E-2],"categories":[],"categories_nodes":[],"categories_segments":[],"categories_sizes":[],"default_left":[0,0,0,1,1,0,0,0,0,0,1,0,0,1,0,0,0,0,0,0,0,0,0,0,0,0,0],"id":28,"left_children":[1,3,5,7,9,11,13,15,17,19,21,23,-1,25,-1,-1,-1,-1,-1,-1,-1,-1,-1,-1,-1,-1,-1],"loss_changes":[4.844735E3,3.099402E2,5.968782E2,1.8092041E1,2.4963336E2,8.084472E2,1.5209155E2,1.2698975E1,2.5281494E1,1.6883133E2,1.2003697E2,2.2912091E2,0E0,1.7500438E2,0E0,0E0,0E0,0E0,0E0,0E0,0E0,0E0,0E0,0E0,0E0,0E0,0E0],"parents":[2147483647,0,0,1,1,2,2,3,3,4,4,5,5,6,6,7,7,8,8,9,9,10,10,11,11,13,13],"right_children":[2,4,6,8,10,12,14,16,18,20,22,24,-1,26,-1,-1,-1,-1,-1,-1,-1,-1,-1,-1,-1,-1,-1],"split_conditions":[2.4E1,8.5E0,1.890971E-1,1.2E2,1.9E1,7E1,2.75E1,5.25E1,9.7E1,1.8522073E-1,1E2,7.85E1,-3.9854832E-2,8.716665E1,-3.86082E-2,7.5371424E-3,3.1790715E-2,3.0938644E-2,-2.0051088E-2,-1.2272326E-3,2.675843E-2,-2.3171268E-3,-5.691904E-2,-3.940182E-2,4.0959176E-2,-4.205554E-2,3.3841375E-2],"split_indices":[50,50,49,12,31,14,50,20,34,49,38,50,0,20,0,0,0,0,0,0,0,0,0,0,0,0,0],"split_type":[0,0,0,0,0,0,0,0,0,0,0,0,0,0,0,0,0,0,0,0,0,0,0,0,0,0,0],"sum_hessian":[6.19744E3,3.3467104E3,2.8507297E3,1.8969475E3,1.4497628E3,5.701695E2,2.2805603E3,1.8656125E3,3.133504E1,1.0685715E3,3.8119125E2,2.983885E2,2.7178104E2,1.0580652E2,2.1747537E3,2.1418467E1,1.8441941E3,1.7062925E1,1.4272113E1,2.5397966E2,8.145919E2,3.4262204E2,3.856919E1,3.464738E1,2.6374112E2,4.943441E1,5.6372112E1],"tree_param":{"num_deleted":"0","num_feature":"51","num_nodes":"27","size_leaf_vector":"1"}},{"base_weights":[-3.5660286E-2,8.023467E-1,-8.5287404E-1,1.0029738E0,4.8766318E-1,-3.3097103E-1,-1.1219027E0,-8.476894E-3,1.0131929E0,6.126168E-1,-1.2193246E0,-1.0148715E0,2.4864298E-1,-2.589988E-1,-3.8092293E-2,2.866297E-2,3.4976315E-2,-2.3883896E-2,2.1633195E-2,-5.76178E-2,1.7899355E-2,-3.386501E-2,2.5789324E-2,1.720679E-2,-4.1413598E-2,7.202345E-3,-4.5890804E-2],"categories":[],"categories_nodes":[],"categories_segments":[],"categories_sizes":[],"default_left":[0,0,0,0,0,1,0,0,1,0,1,1,1,0,0,0,0,0,0,0,0,0,0,0,0,0,0],"id":29,"left_children":[1,3,5,7,9,11,13,-1,15,17,19,21,23,25,-1,-1,-1,-1,-1,-1,-1,-1,-1,-1,-1,-1,-1],"loss_changes":[4.231572E3,1.9147388E2,4.3835083E2,2.5091919E1,2.5563983E2,4.2355298E2,2.6240723E2,0E0,1.3846191E1,1.7107819E2,1.0672968E2,1.0663406E2,3.0802225E2,1.9391011E2,0E0,0E0,0E0,0E0,0E0,0E0,0E0,0E0,0E0,0E0,0E0,0E0,0E0],"parents":[2147483647,0,0,1,1,2,2,3,3,4,4,5,5,6,6,8,8,9,9,10,10,11,11,12,12,13,13],"right_children":[2,4,6,8,10,12,14,-1,16,18,20,22,24,26,-1,-1,-1,-1,-1,-1,-1,-1,-1,-1,-1,-1,-1],"split_conditions":[2.8E1,1E1,7.65E1,4.6E0,1.5E2,1.22E2,4.2E1,-8.476894E-3,9.4E1,9.5E1,3.688889E1,3.827779E1,2E1,9.3E1,-3.8092293E-2,2.866297E-2,3.4976315E-2,-2.3883896E-2,2.1633195E-2,-5.76178E-2,1.7899355E-2,-3.386501E-2,2.5789324E-2,1.720679E-2,-4.1413598E-2,7.202345E-3,-4.5890804E-2],"split_indices":[48,48,12,45,35,33,48,0,15,35,40,40,30,12,0,0,0,0,0,0,0,0,0,0,0,0,0],"split_type":[0,0,0,0,0,0,0,0,0,0,0,0,0,0,0,0,0,0,0,0,0,0,0,0,0,0,0],"sum_hessian":[6.174997E3,3.0486704E3,3.1263267E3,1.858859E3,1.1898113E3,1.0650371E3,2.0612896E3,1.4162628E1,1.8446964E3,1.1099056E3,7.9905655E1,4.8795633E2,5.7708075E2,3.0240625E2,1.7588834E3,1.3493911E3,4.9530533E2,7.839125E1,1.0315144E3,5.7601616E1,2.230404E1,4.6079123E2,2.7165085E1,4.822543E2,9.482646E1,2.1823563E2,8.417061E1],"tree_param":{"num_deleted":"0","num_feature":"51","num_nodes":"27","size_leaf_vector":"1"}},{"base_weights":[2.5875399E-2,7.90699E-1,-9.324386E-1,1.016723E0,5.5442494E-1,-1.6625543E-1,-1.2428612E0,1.0252622E0,-8.540555E-3,-4.819919E-2,6.074646E-1,-1.2307853E0,4.2059407E-1,-9.43889E-2,-3.8009964E-2,2.219645E-2,3.1466592E-2,1.9507226E-2,-4.6814278E-2,-3.882308E-2,-3.280313E-3,3.264004E-2,-2.515556E-2,3.4295134E-2,-3.904898E-2],"categories":[],"categories_nodes":[],"categories_segments":[],"categories_sizes":[],"default_left":[0,0,0,1,0,1,0,0,0,0,1,0,1,0,0,0,0,0,0,0,0,0,0,0,0],"id":30,"left_children":[1,3,5,7,9,11,13,15,-1,-1,17,19,21,23,-1,-1,-1,-1,-1,-1,-1,-1,-1,-1,-1],"loss_changes":[4.632399E3,1.8643066E2,6.6665186E2,2.0593018E1,1.9936438E2,5.0792392E2,5.4957275E1,1.028772E1,0E0,0E0,1.5804883E2,2.0088104E1,4.4251712E2,6.773351E1,0E0,0E0,0E0,0E0,0E0,0E0,0E0,0E0,0E0,0E0,0E0],"parents":[2147483647,0,0,1,1,2,2,3,3,4,4,5,5,6,6,7,7,10,10,11,11,12,12,13,13],"right_children":[2,4,6,8,10,12,14,16,-1,-1,18,20,22,24,-1,-1,-1,-1,-1,-1,-1,-1,-1,-1,-1],"split_conditions":[2.45E1,8E0,7.2E1,1.25666664E2,8.8E1,1.22E2,2.6E1,1.6E1,-8.540555E-3,-4.819919E-2,2.9E1,4.1E1,1.3E1,7.5E1,-3.8009964E-2,2.219645E-2,3.1466592E-2,1.9507226E-2,-4.6814278E-2,-3.882308E-2,-3.280313E-3,3.264004E-2,-2.515556E-2,3.4295134E-2,-3.904898E-2],"split_indices":[50,50,12,12,33,34,50,28,0,0,31,28,28,15,0,0,0,0,0,0,0,0,0,0,0],"split_type":[0,0,0,0,0,0,0,0,0,0,0,0,0,0,0,0,0,0,0,0,0,0,0,0,0],"sum_hessian":[6.316295E3,3.513027E3,2.8032678E3,1.7918662E3,1.7211609E3,8.0925714E2,1.9940107E3,1.7806835E3,1.1182784E1,3.9782494E1,1.6813784E3,2.868658E2,5.223913E2,4.133339E1,1.9526772E3,1.4140283E2,1.6392806E3,1.6502628E3,3.1115553E1,2.7115887E2,1.5706914E1,3.4164804E2,1.8074329E2,2.0421934E1,2.0911455E1],"tree_param":{"num_deleted":"0","num_feature":"51","num_nodes":"25","size_leaf_vector":"1"}},{"base_weights":[2.9045664E-4,7.8278923E-1,-9.4313896E-1,1.0010711E0,4.8227417E-1,-1.9340263E-1,-1.2368976E0,7.537995E-1,1.03762E0,5.588106E-1,-1.1273404E0,-1.1317806E0,3.6333728E-1,-6.622712E-1,-3.771177E-2,3.392626E-2,5.40853E-3,-1.4082728E-3,3.132737E-2,9.405632E-3,3.2376274E-2,3.5035536E-2,-4.8057362E-2,1.34274E-2,-3.6523588E-2,3.0910002E-2,-2.160148E-2,2.5219848E-2,-4.1415535E-2],"categories":[],"categories_nodes":[],"categories_segments":[],"categories_sizes":[],"default_left":[0,0,0,0,1,1,0,0,0,0,0,0,1,0,0,0,0,0,0,0,0,0,0,0,0,0,0,0,0],"id":31,"left_children":[1,3,5,7,9,11,13,15,17,19,21,23,25,27,-1,-1,-1,-1,-1,-1,-1,-1,-1,-1,-1,-1,-1,-1,-1],"loss_changes":[4.5149497E3,2.1818677E2,6.100569E2,1.5739258E1,1.749891E2,4.0998465E2,2.1217773E1,5.4991135E1,1.2268188E1,1.7125824E2,7.418806E1,4.0694855E1,3.5769507E2,7.999811E1,0E0,0E0,0E0,0E0,0E0,0E0,0E0,0E0,0E0,0E0,0E0,0E0,0E0,0E0,0E0],"parents":[2147483647,0,0,1,1,2,2,3,3,4,4,5,5,6,6,7,7,8,8,9,9,10,10,11,11,12,12,13,13],"right_children":[2,4,6,8,10,12,14,16,18,20,22,24,26,28,-1,-1,-1,-1,-1,-1,-1,-1,-1,-1,-1,-1,-1,-1,-1],"split_conditions":[2.3E1,9E0,7.2E1,5.4E1,2.7E1,1.22E2,2.6E1,3.8E1,3.54444E1,2.5E1,9.3E0,2.4E1,1.3E1,7.5E1,-3.771177E-2,3.392626E-2,5.40853E-3,-1.4082728E-3,3.132737E-2,9.405632E-3,3.2376274E-2,3.5035536E-2,-4.8057362E-2,1.34274E-2,-3.6523588E-2,3.0910002E-2,-2.160148E-2,2.5219848E-2,-4.1415535E-2],"split_indices":[50,50,14,10,30,34,50,9,41,30,44,50,30,14,0,0,0,0,0,0,0,0,0,0,0,0,0,0,0],"split_type":[0,0,0,0,0,0,0,0,0,0,0,0,0,0,0,0,0,0,0,0,0,0,0,0,0,0,0,0,0],"sum_hessian":[6.111914E3,3.3411477E3,2.7707666E3,1.9324789E3,1.4086687E3,7.8103973E2,1.9897269E3,2.5477577E2,1.6777031E3,1.3460333E3,6.263545E1,2.9013492E2,4.9090482E2,6.990803E1,1.9198188E3,1.524347E2,1.0234108E2,1.0021653E1,1.6676815E3,9.17138E2,4.288953E2,1.0195258E1,5.244019E1,1.4433776E1,2.7570114E2,3.039597E2,1.8694511E2,2.2450403E1,4.7457623E1],"tree_param":{"num_deleted":"0","num_feature":"51","num_nodes":"29","size_leaf_vector":"1"}},{"base_weights":[3.7744686E-2,8.24153E-1,-7.506378E-1,1.0050995E0,5.1868117E-1,-1.4652729E-1,-1.1073451E0,6.524094E-1,1.0406315E0,6.309057E-1,-1.433761E0,-1.0071177E0,3.8474482E-1,-4.1105285E-1,-3.718948E-2,2.6518336E-2,-7.138195E-3,3.148703E-2,1.3301362E-2,-5.0277695E-2,2.0722523E-2,1.5063667E-2,-5.515538E-2,1.4789146E-2,-3.910655E-2,2.2112004E-2,-4.027579E-2,2.3192871E-2,-3.385567E-2],"categories":[],"categories_nodes":[],"categories_segments":[],"categories_sizes":[],"default_left":[0,0,0,0,0,1,0,0,1,0,0,0,0,0,0,0,0,0,0,0,0,0,0,0,0,0,0,0,0],"id":32,"left_children":[1,3,5,7,9,11,13,15,17,19,21,23,25,27,-1,-1,-1,-1,-1,-1,-1,-1,-1,-1,-1,-1,-1,-1,-1],"loss_changes":[3.8350518E3,1.6997314E2,6.6518616E2,2.2814697E1,2.550904E2,5.2625464E2,1.7769458E2,3.8292107E1,8.318848E0,1.5337E2,5.1667953E1,1.9669891E2,4.351611E2,2.678355E2,0E0,0E0,0E0,0E0,0E0,0E0,0E0,0E0,0E0,0E0,0E0,0E0,0E0,0E0,0E0],"parents":[2147483647,0,0,1,1,2,2,3,3,4,4,5,5,6,6,7,7,8,8,9,9,10,10,11,11,12,12,13,13],"right_children":[2,4,6,8,10,12,14,16,18,20,22,24,26,28,-1,-1,-1,-1,-1,-1,-1,-1,-1,-1,-1,-1,-1,-1,-1],"split_conditions":[2.7E1,1E1,7.7E1,1.09E1,1.54E2,1.22E2,4.3E1,3E0,1.26E2,8.8E1,6.7E1,3.4E1,5.971944E-1,1.01E2,-3.718948E-2,2.6518336E-2,-7.138195E-3,3.148703E-2,1.3301362E-2,-5.0277695E-2,2.0722523E-2,1.5063667E-2,-5.515538E-2,1.4789146E-2,-3.910655E-2,2.2112004E-2,-4.027579E-2,2.3192871E-2,-3.385567E-2],"split_indices":[48,48,14,44,34,34,48,48,14,33,12,48,49,34,0,0,0,0,0,0,0,0,0,0,0,0,0,0,0],"split_type":[0,0,0,0,0,0,0,0,0,0,0,0,0,0,0,0,0,0,0,0,0,0,0,0,0,0,0,0,0],"sum_hessian":[6.181654E3,3.0947197E3,3.0869338E3,1.9404084E3,1.1543113E3,1.1471875E3,1.9397465E3,1.813974E2,1.7590111E3,1.0928975E3,6.1413757E1,4.3726804E2,7.0991943E2,3.111569E2,1.6285895E3,1.4406105E2,3.733634E1,1.7314233E3,2.7587763E1,2.6227688E1,1.0666698E3,1.0493985E1,5.0919773E1,7.187664E1,3.6539142E2,5.9064624E2,1.1927325E2,1.1728659E2,1.9387029E2],"tree_param":{"num_deleted":"0","num_feature":"51","num_nodes":"29","size_leaf_vector":"1"}},{"base_weights":[4.1341927E-2,7.409114E-1,-9.782675E-1,8.9211076E-1,2.3696475E-1,1.1464403E-2,-3.7226908E-2,1.0060753E0,6.7637026E-1,-6.0676885E-1,6.519314E-1,1.0665928E0,-3.8269166E-2,-6.935468E-3,3.0434E-2,2.2393176E-2,-5.1740885E-2,-5.4633528E-2,1.4747664E-2,2.5793124E-2,-5.0512314E-2,-3.719296E-2,3.890175E-2],"categories":[],"categories_nodes":[],"categories_segments":[],"categories_sizes":[],"default_left":[0,0,0,0,0,0,0,0,1,1,1,0,0,0,0,0,0,0,0,0,0,0,0],"id":33,"left_children":[1,3,5,7,9,11,-1,13,15,17,19,21,-1,-1,-1,-1,-1,-1,-1,-1,-1,-1,-1],"loss_changes":[4.356016E3,2.754414E2,6.4609424E2,6.6948975E1,2.9446646E2,7.130094E2,0E0,1.942273E1,1.6552017E2,3.7202414E2,2.7625848E2,1.5637326E2,0E0,0E0,0E0,0E0,0E0,0E0,0E0,0E0,0E0,0E0,0E0],"parents":[2147483647,0,0,1,1,2,2,3,3,4,4,5,5,7,7,8,8,9,9,10,10,11,11],"right_children":[2,4,6,8,10,12,-1,14,16,18,20,22,-1,-1,-1,-1,-1,-1,-1,-1,-1,-1,-1],"split_conditions":[2.75E1,1.5E1,1.890971E-1,8E0,3.253173E-1,6.7E1,-3.7226908E-2,5.25E1,2.7E1,9.2E1,2.1E1,7.85E1,-3.8269166E-2,-6.935468E-3,3.0434E-2,2.2393176E-2,-5.1740885E-2,-5.4633528E-2,1.4747664E-2,2.5793124E-2,-5.0512314E-2,-3.719296E-2,3.890175E-2],"split_indices":[50,50,49,50,49,15,0,20,30,13,30,50,0,0,0,0,0,0,0,0,0,0,0],"split_type":[0,0,0,0,0,0,0,0,0,0,0,0,0,0,0,0,0,0,0,0,0,0,0],"sum_hessian":[6.102956E3,3.6199192E3,2.4830369E3,2.7831506E3,8.3676874E2,5.2103253E2,1.9620043E3,1.8160405E3,9.671099E2,2.7548062E2,5.6128815E2,2.865488E2,2.3448369E2,1.1795929E1,1.8042446E3,9.410672E2,2.6042736E1,1.302503E2,1.4523032E2,5.1662317E2,4.466497E1,2.5162664E1,2.6138614E2],"tree_param":{"num_deleted":"0","num_feature":"51","num_nodes":"23","size_leaf_vector":"1"}},{"base_weights":[2.2712456E-2,7.5777924E-1,-9.214408E-1,9.6720827E-1,4.6699202E-1,-1.727143E-1,-1.222602E0,-1.3576069E-2,9.760005E-1,5.428053E-1,-1.0800433E0,9.7482014E-1,-9.19421E-1,-9.8145425E-1,-3.7009366E-2,-1.0687166E-2,2.9558841E-2,1.7833538E-2,-6.476216E-2,-4.5898598E-2,3.457268E-2,-3.8001884E-2,3.9105684E-2,1.9541686E-2,-3.7928347E-2,1.4425633E-2,-3.6947902E-2],"categories":[],"categories_nodes":[],"categories_segments":[],"categories_sizes":[],"default_left":[0,0,0,0,1,0,0,0,0,1,1,0,0,0,0,0,0,0,0,0,0,0,0,0,0,0,0],"id":34,"left_children":[1,3,5,7,9,11,13,-1,15,17,19,21,23,25,-1,-1,-1,-1,-1,-1,-1,-1,-1,-1,-1,-1,-1],"loss_changes":[4.0978115E3,2.0113184E2,5.8223804E2,2.5000488E1,1.646182E2,6.391502E2,2.2646484E0,0E0,2.449768E1,1.8801807E2,6.958471E1,2.2002417E2,2.4639291E2,3.450093E1,0E0,0E0,0E0,0E0,0E0,0E0,0E0,0E0,0E0,0E0,0E0,0E0,0E0],"parents":[2147483647,0,0,1,1,2,2,3,3,4,4,5,5,6,6,8,8,9,9,10,10,11,11,12,12,13,13],"right_children":[2,4,6,8,10,12,14,-1,16,18,20,22,24,26,-1,-1,-1,-1,-1,-1,-1,-1,-1,-1,-1,-1,-1],"split_conditions":[2.3E1,9E0,7.2E1,1.1E1,2.7E1,1.890971E-1,7.5E1,-1.3576069E-2,4.9E0,1.5E2,2.67E2,7.65E1,2.75E1,2.6E1,-3.7009366E-2,-1.0687166E-2,2.9558841E-2,1.7833538E-2,-6.476216E-2,-4.5898598E-2,3.457268E-2,-3.8001884E-2,3.9105684E-2,1.9541686E-2,-3.7928347E-2,1.4425633E-2,-3.6947902E-2],"split_indices":[50,50,14,31,30,49,14,0,44,24,24,50,50,50,0,0,0,0,0,0,0,0,0,0,0,0,0],"split_type":[0,0,0,0,0,0,0,0,0,0,0,0,0,0,0,0,0,0,0,0,0,0,0,0,0,0,0],"sum_hessian":[5.9005054E3,3.3178823E3,2.5826233E3,1.9258566E3,1.3920256E3,7.4182574E2,1.8407976E3,1.1161767E1,1.9146948E3,1.3282947E3,6.373086E1,2.9213284E2,4.496929E2,8.88768E1,1.7519208E3,1.2673322E1,1.9020215E3,1.3049447E3,2.334998E1,5.360248E1,1.0128381E1,3.6591267E1,2.5554156E2,8.058119E1,3.691117E2,1.2654637E1,7.622217E1],"tree_param":{"num_deleted":"0","num_feature":"51","num_nodes":"27","size_leaf_vector":"1"}},{"base_weights":[5.5323923E-3,7.578536E-1,-7.3287016E-1,9.427148E-1,4.7242677E-1,-1.7804755E-1,-1.0471582E0,-8.975219E-3,9.526101E-1,5.291213E-1,-6.1139137E-2,-9.920927E-1,3.4100777E-1,-2.5364333E-1,-3.6439124E-2,2.880221E-2,-5.698566E-3,-1.1089487E-2,2.018731E-2,7.2848517E-3,-3.6697924E-2,1.9381447E-2,-3.9768927E-2,2.497808E-2,-3.2416094E-2],"categories":[],"categories_nodes":[],"categories_segments":[],"categories_sizes":[],"default_left":[0,0,0,0,1,1,0,0,1,1,0,0,1,0,0,0,0,0,0,0,0,0,0,0,0],"id":35,"left_children":[1,3,5,7,9,11,13,-1,15,17,-1,19,21,23,-1,-1,-1,-1,-1,-1,-1,-1,-1,-1,-1],"loss_changes":[3.2206724E3,1.504967E2,5.0969116E2,2.2026855E1,1.6327118E2,4.488647E2,2.4739038E2,0E0,1.5173462E1,1.4393497E2,0E0,1.1874481E2,3.316087E2,2.964835E2,0E0,0E0,0E0,0E0,0E0,0E0,0E0,0E0,0E0,0E0,0E0],"parents":[2147483647,0,0,1,1,2,2,3,3,4,4,5,5,6,6,8,8,9,9,11,11,12,12,13,13],"right_children":[2,4,6,8,10,12,14,-1,16,18,-1,20,22,24,-1,-1,-1,-1,-1,-1,-1,-1,-1,-1,-1],"split_conditions":[2.7E1,1E1,7.7E1,4.6E0,1.54E2,1.22E2,4.3E1,-8.975219E-3,1.29E2,9.7E1,-6.1139137E-2,3.4E1,2E1,1.01E2,-3.6439124E-2,2.880221E-2,-5.698566E-3,-1.1089487E-2,2.018731E-2,7.2848517E-3,-3.6697924E-2,1.9381447E-2,-3.9768927E-2,2.497808E-2,-3.2416094E-2],"split_indices":[48,48,14,45,34,34,48,0,14,35,0,48,30,34,0,0,0,0,0,0,0,0,0,0,0],"split_type":[0,0,0,0,0,0,0,0,0,0,0,0,0,0,0,0,0,0,0,0,0,0,0,0,0],"sum_hessian":[5.79362E3,2.8698037E3,2.9238162E3,1.7387313E3,1.1310724E3,1.0585594E3,1.8652567E3,1.3202517E1,1.7255288E3,1.107675E3,2.33973E1,4.115255E2,6.4703394E2,3.2605194E2,1.5392047E3,1.7147346E3,1.0794279E1,1.5224052E2,9.554345E2,6.4804665E1,3.4672086E2,5.4801666E2,9.901731E1,1.4086728E2,1.8518468E2],"tree_param":{"num_deleted":"0","num_feature":"51","num_nodes":"25","size_leaf_vector":"1"}},{"base_weights":[2.6273854E-2,6.840764E-1,-7.800093E-1,8.9444906E-1,2.745768E-1,-2.0740531E-1,-1.1035159E0,-1.5662804E-2,9.056621E-1,-4.540925E-1,6.4710325E-1,-1.2082537E0,3.5246602E-1,-9.972921E-2,-3.620515E-2,2.9022973E-2,1.98072E-2,8.430691E-4,-5.033569E-2,2.5017394E-2,-2.600167E-2,-3.7829023E-2,-6.300431E-3,2.1421766E-2,-3.8415175E-2,3.055173E-2,-2.7189158E-2],"categories":[],"categories_nodes":[],"categories_segments":[],"categories_sizes":[],"default_left":[0,0,0,0,0,1,0,0,0,0,0,0,0,0,0,0,0,0,0,0,0,0,0,0,0,0,0],"id":36,"left_children":[1,3,5,7,9,11,13,-1,15,17,19,21,23,25,-1,-1,-1,-1,-1,-1,-1,-1,-1,-1,-1,-1,-1],"loss_changes":[3.0588394E3,2.730083E2,4.7940417E2,3.429492E1,2.9403403E2,5.2655396E2,1.7129126E2,0E0,3.011499E1,2.1668623E2,2.0398181E2,1.7056976E1,3.5783337E2,1.4319098E2,0E0,0E0,0E0,0E0,0E0,0E0,0E0,0E0,0E0,0E0,0E0,0E0,0E0],"parents":[2147483647,0,0,1,1,2,2,3,3,4,4,5,5,6,6,8,8,9,9,10,10,11,11,12,12,13,13],"right_children":[2,4,6,8,10,12,14,-1,16,18,20,22,24,26,-1,-1,-1,-1,-1,-1,-1,-1,-1,-1,-1,-1,-1],"split_conditions":[3.5E1,1.4E1,7.7E1,4.6E0,2.5142857E-1,1.22E2,4.3E1,-1.5662804E-2,9E0,2.3E1,9.2E1,6.3E1,5.971944E-1,1E2,-3.620515E-2,2.9022973E-2,1.98072E-2,8.430691E-4,-5.033569E-2,2.5017394E-2,-2.600167E-2,-3.7829023E-2,-6.300431E-3,2.1421766E-2,-3.8415175E-2,3.055173E-2,-2.7189158E-2],"split_indices":[48,48,14,44,49,34,48,0,48,48,12,28,49,34,0,0,0,0,0,0,0,0,0,0,0,0,0],"split_type":[0,0,0,0,0,0,0,0,0,0,0,0,0,0,0,0,0,0,0,0,0,0,0,0,0,0,0],"sum_hessian":[5.7633184E3,3.1741387E3,2.5891797E3,2.0951714E3,1.0789673E3,9.3602106E2,1.6531587E3,1.566901E1,2.0795024E3,3.6476776E2,7.141995E2,3.3500864E2,6.0101245E2,1.5474046E2,1.4984182E3,1.6563295E3,4.2317294E2,2.630081E2,1.01759674E2,6.3660516E2,7.759437E1,3.176101E2,1.7398537E1,4.9302698E2,1.0798544E2,6.457451E1,9.016595E1],"tree_param":{"num_deleted":"0","num_feature":"51","num_nodes":"27","size_leaf_vector":"1"}},{"base_weights":[1.2118526E-2,7.7061725E-1,-6.7447114E-1,9.2835426E-1,4.9739945E-1,-2.9702714E-1,-1.1749271E0,6.009663E-1,9.6727675E-1,-6.1950624E-1,6.684748E-1,8.63286E-3,-3.6138736E-2,-1.2107102E0,-4.9944207E-1,2.4545593E-2,-3.3913169E-3,9.490419E-3,2.9424654E-2,3.530873E-3,-4.7966696E-2,2.2027617E-2,-6.0707238E-2,7.438811E-3,-3.888039E-2,-3.0881295E-2,-3.757305E-2,3.1403765E-2,-3.6327712E-2],"categories":[],"categories_nodes":[],"categories_segments":[],"categories_sizes":[],"default_left":[0,0,1,0,1,0,1,0,0,1,0,0,0,0,0,0,0,0,0,0,0,0,0,0,0,0,0,0,0],"id":37,"left_children":[1,3,5,7,9,11,13,15,17,19,21,23,-1,25,27,-1,-1,-1,-1,-1,-1,-1,-1,-1,-1,-1,-1,-1,-1],"loss_changes":[2.946407E3,1.147832E2,5.600874E2,2.0364746E1,1.8970021E2,4.7053278E2,2.946045E1,2.9160683E1,1.2627686E1,9.600942E1,1.5481247E2,3.9718585E2,0E0,6.3498535E0,7.706942E1,0E0,0E0,0E0,0E0,0E0,0E0,0E0,0E0,0E0,0E0,0E0,0E0,0E0,0E0],"parents":[2147483647,0,0,1,1,2,2,3,3,4,4,5,5,6,6,7,7,8,8,9,9,10,10,11,11,13,13,14,14],"right_children":[2,4,6,8,10,12,14,16,18,20,22,24,-1,26,28,-1,-1,-1,-1,-1,-1,-1,-1,-1,-1,-1,-1,-1,-1],"split_conditions":[2.4E1,1E1,1.9E1,1.09E1,9.7E1,1.96E2,1.64E2,3E0,3.57E1,5.4E1,1.54E2,9.4E1,-3.6138736E-2,4.6E1,2E1,2.4545593E-2,-3.3913169E-3,9.490419E-3,2.9424654E-2,3.530873E-3,-4.7966696E-2,2.2027617E-2,-6.0707238E-2,7.438811E-3,-3.888039E-2,-3.0881295E-2,-3.757305E-2,3.1403765E-2,-3.6327712E-2],"split_indices":[48,48,30,46,33,48,33,48,41,22,34,15,0,11,30,0,0,0,0,0,0,0,0,0,0,0,0,0,0],"split_type":[0,0,0,0,0,0,0,0,0,0,0,0,0,0,0,0,0,0,0,0,0,0,0,0,0,0,0,0,0],"sum_hessian":[5.653695E3,2.6861335E3,2.9675613E3,1.6996891E3,9.864444E2,1.6936196E3,1.2739417E3,1.8436795E2,1.5153212E3,1.3024995E2,8.5619446E2,1.2683398E3,4.2527975E2,1.2082053E3,6.573627E1,1.4124565E2,4.3122295E1,3.2032776E1,1.4832885E3,7.525873E1,5.4991226E1,8.3722876E2,1.8965708E1,1.0731711E3,1.951687E2,2.3605629E2,9.7214905E2,2.0374367E1,4.5361904E1],"tree_param":{"num_deleted":"0","num_feature":"51","num_nodes":"29","size_leaf_vector":"1"}},{"base_weights":[1.1209304E-2,-1.9037303E-1,6.944916E-1,1.5011767E-1,-4.3399912E-1,-2.111326E-1,8.6459833E-1,6.2332785E-1,-1.6805211E-2,-6.655408E-1,-5.821311E-2,3.2807086E-2,-5.528106E-1,9.0799576E-1,-4.0836424E-2,-1.7429365E-2,2.4697496E-2,-1.3130553E-2,1.1918681E-2,-3.234662E-2,-1.512714E-2,7.037891E-3,-2.0288272E-2,-4.354E-2,-2.035379E-3,-3.8702905E-2,2.851255E-2],"categories":[],"categories_nodes":[],"categories_segments":[],"categories_sizes":[],"default_left":[0,0,0,0,1,0,1,1,0,0,0,0,1,0,0,0,0,0,0,0,0,0,0,0,0,0,0],"id":38,"left_children":[1,3,5,7,9,11,13,15,17,19,21,-1,23,25,-1,-1,-1,-1,-1,-1,-1,-1,-1,-1,-1,-1,-1],"loss_changes":[7.655237E2,3.5613995E2,1.9548627E2,1.4156683E2,2.1756717E2,9.1085785E1,1.05437805E2,1.134875E2,2.3143579E2,1.0179199E2,1.7342989E2,0E0,6.9919205E1,1.0007562E2,0E0,0E0,0E0,0E0,0E0,0E0,0E0,0E0,0E0,0E0,0E0,0E0,0E0],"parents":[2147483647,0,0,1,1,2,2,3,3,4,4,5,5,6,6,7,7,8,8,9,9,10,10,12,12,13,13],"right_children":[2,4,6,8,10,12,14,16,18,20,22,-1,24,26,-1,-1,-1,-1,-1,-1,-1,-1,-1,-1,-1,-1,-1],"split_conditions":[4.5E1,7.8E1,1.11E1,4.2E1,6.8E1,1.7E0,1.42E2,9.7E1,1.29E2,9.671429E1,9.9E1,3.2807086E-2,9E-1,6.63333E1,-4.0836424E-2,-1.7429365E-2,2.4697496E-2,-1.3130553E-2,1.1918681E-2,-3.234662E-2,-1.512714E-2,7.037891E-3,-2.0288272E-2,-4.354E-2,-2.035379E-3,-3.8702905E-2,2.851255E-2],"split_indices":[31,13,44,9,10,16,34,34,35,36,13,0,4,22,0,0,0,0,0,0,0,0,0,0,0,0,0],"split_type":[0,0,0,0,0,0,0,0,0,0,0,0,0,0,0,0,0,0,0,0,0,0,0,0,0,0,0],"sum_hessian":[5.5535537E3,4.2893916E3,1.2641624E3,1.7891879E3,2.5002036E3,1.9973439E2,1.064428E3,4.652838E2,1.323904E3,1.5458903E3,9.5431335E2,4.047733E1,1.5925706E2,1.0452769E3,1.9151066E1,6.562916E1,3.9965466E2,6.5663605E2,6.6726807E2,4.3106293E2,1.1148274E3,6.482714E2,3.0604193E2,5.435634E1,1.0490073E2,1.8633232E1,1.0266437E3],"tree_param":{"num_deleted":"0","num_feature":"51","num_nodes":"27","size_leaf_vector":"1"}},{"base_weights":[-1.02742575E-2,6.428197E-1,-9.5101583E-1,9.2819226E-1,3.5430464E-1,1.83799E-1,-1.1137825E0,9.625608E-1,-5.802372E-2,-6.952796E-1,4.7959322E-1,7.595815E-1,-3.5632603E-2,-6.2189096E-1,-3.6012452E-2,2.9218763E-2,1.206322E-3,-1.7484797E-3,-4.2604852E-2,3.2390743E-2,8.333049E-3,3.116994E-2,-3.3741623E-2,1.0340782E-3,-3.7348762E-2],"categories":[],"categories_nodes":[],"categories_segments":[],"categories_sizes":[],"default_left":[0,0,0,0,1,1,0,1,0,1,1,0,0,1,0,0,0,0,0,0,0,0,0,0,0],"id":39,"left_children":[1,3,5,7,9,11,13,15,-1,17,19,21,-1,23,-1,-1,-1,-1,-1,-1,-1,-1,-1,-1,-1],"loss_changes":[3.322718E3,2.6202588E2,4.0983545E2,1.613523E2,2.098205E2,2.2258342E2,8.092993E1,1.6490356E1,0E0,7.835041E1,1.7152768E2,1.0668999E2,0E0,1.2068679E2,0E0,0E0,0E0,0E0,0E0,0E0,0E0,0E0,0E0,0E0,0E0],"parents":[2147483647,0,0,1,1,2,2,3,3,4,4,5,5,6,6,7,7,9,9,10,10,11,11,13,13],"right_children":[2,4,6,8,10,12,14,16,-1,18,20,22,-1,24,-1,-1,-1,-1,-1,-1,-1,-1,-1,-1,-1],"split_conditions":[2.75E1,1E1,5.9E1,1.25E1,9.5E1,1.3E1,7E1,1.26E2,-5.802372E-2,1.7E1,1.2E1,1.93E2,-3.5632603E-2,1.3E1,-3.6012452E-2,2.9218763E-2,1.206322E-3,-1.7484797E-3,-4.2604852E-2,3.2390743E-2,8.333049E-3,3.116994E-2,-3.3741623E-2,1.0340782E-3,-3.7348762E-2],"split_indices":[50,48,14,50,33,30,14,14,0,30,30,48,0,30,0,0,0,0,0,0,0,0,0,0,0],"split_type":[0,0,0,0,0,0,0,0,0,0,0,0,0,0,0,0,0,0,0,0,0,0,0,0,0],"sum_hessian":[5.404094E3,3.1900105E3,2.2140837E3,1.6013357E3,1.5886748E3,2.776219E2,1.9364619E3,1.5836824E3,1.7653297E1,1.6836102E2,1.4203137E3,1.962153E2,8.140658E1,2.92603E2,1.643859E3,1.5641332E3,1.9549212E1,9.0836426E1,7.75246E1,3.5514496E2,1.0651688E3,1.7170418E2,2.4511127E1,1.4333647E2,1.4926653E2],"tree_param":{"num_deleted":"0","num_feature":"51","num_nodes":"25","size_leaf_vector":"1"}},{"base_weights":[2.1017153E-2,5.886488E-1,-8.095974E-1,8.858091E-1,2.2906983E-1,-1.6156511E-1,-3.5574406E-2,-1.557007E-2,8.981736E-1,4.2614245E-1,-5.0470734E-1,-1.1571795E0,3.758031E-1,2.7245749E-2,-1.813657E-2,3.4754593E-2,8.207222E-3,2.3928187E-3,-3.9876815E-2,-3.6494635E-2,-3.8321796E-3,2.0547163E-2,-3.624832E-2],"categories":[],"categories_nodes":[],"categories_segments":[],"categories_sizes":[],"default_left":[0,0,0,0,1,1,0,0,1,0,0,0,0,0,0,0,0,0,0,0,0,0,0],"id":40,"left_children":[1,3,5,7,9,11,-1,-1,13,15,17,19,21,-1,-1,-1,-1,-1,-1,-1,-1,-1,-1],"loss_changes":[2.5898306E3,3.481521E2,5.431282E2,3.1988281E1,2.1434384E2,4.4044397E2,0E0,0E0,2.7789673E1,1.296512E2,1.5165538E2,1.7169739E1,2.6354147E2,0E0,0E0,0E0,0E0,0E0,0E0,0E0,0E0,0E0,0E0],"parents":[2147483647,0,0,1,1,2,2,3,3,4,4,5,5,8,8,9,9,10,10,11,11,12,12],"right_children":[2,4,6,8,10,12,-1,-1,14,16,18,20,22,-1,-1,-1,-1,-1,-1,-1,-1,-1,-1],"split_conditions":[4.2E1,1.1E1,7.6E1,4.6E0,2.1E1,1.22E2,-3.5574406E-2,-1.557007E-2,1.26E2,4.3E1,2.2E1,6.3E1,1.96E2,2.7245749E-2,-1.813657E-2,3.4754593E-2,8.207222E-3,2.3928187E-3,-3.9876815E-2,-3.6494635E-2,-3.8321796E-3,2.0547163E-2,-3.624832E-2],"split_indices":[48,48,14,44,31,34,0,0,14,10,48,28,48,0,0,0,0,0,0,0,0,0,0],"split_type":[0,0,0,0,0,0,0,0,0,0,0,0,0,0,0,0,0,0,0,0,0,0,0],"sum_hessian":[5.48897E3,3.2610872E3,2.2278833E3,1.7837609E3,1.4773263E3,8.194704E2,1.4084128E3,1.47772455E1,1.7689836E3,1.165326E3,3.1200015E2,2.8651187E2,5.329585E2,1.7581207E3,1.0862877E1,1.9852821E2,9.6679785E2,1.8356429E2,1.2843587E2,2.70469E2,1.604289E1,4.4694443E2,8.6014084E1],"tree_param":{"num_deleted":"0","num_feature":"51","num_nodes":"23","size_leaf_vector":"1"}},{"base_weights":[3.060138E-3,6.5442234E-1,-8.81135E-1,8.6054057E-1,3.3003342E-1,5.4067694E-2,-1.1411989E0,8.8614315E-1,-5.503395E-2,-8.777697E-1,5.991939E-1,1.0207806E0,-3.702318E-2,1.2851523E-2,-3.5763927E-2,2.7796155E-2,1.992218E-2,-4.3296866E-2,6.201562E-3,2.3593526E-2,-3.3890177E-2,-3.69817E-2,3.8352724E-2,-4.102299E-2,3.0344827E-2],"categories":[],"categories_nodes":[],"categories_segments":[],"categories_sizes":[],"default_left":[0,0,0,0,0,0,0,0,0,1,1,0,0,0,0,0,0,0,0,0,0,0,0,0,0],"id":41,"left_children":[1,3,5,7,9,11,13,15,-1,17,19,21,-1,23,-1,-1,-1,-1,-1,-1,-1,-1,-1,-1,-1],"loss_changes":[3.0806748E3,2.0525806E2,5.520665E2,1.3301038E2,3.9118646E2,6.195386E2,1.04505615E2,1.5346436E1,0E0,1.3530014E2,3.198835E2,1.6816748E2,0E0,1.0878528E2,0E0,0E0,0E0,0E0,0E0,0E0,0E0,0E0,0E0,0E0,0E0],"parents":[2147483647,0,0,1,1,2,2,3,3,4,4,5,5,6,6,7,7,9,9,10,10,11,11,13,13],"right_children":[2,4,6,8,10,12,14,16,-1,18,20,22,-1,24,-1,-1,-1,-1,-1,-1,-1,-1,-1,-1,-1],"split_conditions":[2.45E1,1.4E1,1.890971E-1,1.45E1,1.8522073E-1,7E1,2.7E1,1E1,-5.503395E-2,6.8E1,2.1E1,1.47E2,-3.702318E-2,4.9E1,-3.5763927E-2,2.7796155E-2,1.992218E-2,-4.3296866E-2,6.201562E-3,2.3593526E-2,-3.3890177E-2,-3.69817E-2,3.8352724E-2,-4.102299E-2,3.0344827E-2],"split_indices":[50,48,49,50,49,14,50,48,0,8,28,48,0,48,0,0,0,0,0,0,0,0,0,0,0],"split_type":[0,0,0,0,0,0,0,0,0,0,0,0,0,0,0,0,0,0,0,0,0,0,0,0,0],"sum_hessian":[5.345069E3,3.0781287E3,2.26694E3,1.8799719E3,1.1981567E3,4.9349774E2,1.7734423E3,1.8636469E3,1.6325151E1,2.1745914E2,9.8069763E2,2.8220734E2,2.1129037E2,7.493973E1,1.6985026E3,1.571069E3,2.925778E2,1.4255873E2,7.490041E1,8.858928E2,9.480481E1,2.8138027E1,2.5406932E2,3.110664E1,4.3833088E1],"tree_param":{"num_deleted":"0","num_feature":"51","num_nodes":"25","size_leaf_vector":"1"}},{"base_weights":[5.034779E-4,6.203253E-1,-9.309891E-1,8.593244E-1,2.6106676E-1,2.540084E-1,-1.1184319E0,8.877064E-1,-5.3308714E-2,8.519731E-2,1.119357E0,7.9495597E-1,-3.507609E-2,-1.1465652E0,-2.2388436E-1,2.8328992E-2,2.010746E-2,-1.27114775E-2,2.1631315E-2,-6.700959E-3,3.787545E-2,3.179648E-2,-3.322225E-2,-2.437108E-2,-3.5511907E-2,4.0694233E-2,-3.34501E-2],"categories":[],"categories_nodes":[],"categories_segments":[],"categories_sizes":[],"default_left":[0,0,0,0,0,1,1,0,0,0,1,0,0,0,0,0,0,0,0,0,0,0,0,0,0,0,0],"id":42,"left_children":[1,3,5,7,9,11,13,15,-1,17,19,21,-1,23,25,-1,-1,-1,-1,-1,-1,-1,-1,-1,-1,-1,-1],"loss_changes":[2.9983938E3,2.6719495E2,4.615337E2,1.4310474E2,1.8819533E2,2.2119298E2,4.4447266E1,2.1377197E1,0E0,3.3675818E2,4.1440826E1,1.0702457E2,0E0,1.9448242E1,8.3600624E1,0E0,0E0,0E0,0E0,0E0,0E0,0E0,0E0,0E0,0E0,0E0,0E0],"parents":[2147483647,0,0,1,1,2,2,3,3,4,4,5,5,6,6,7,7,9,9,10,10,11,11,13,13,14,14],"right_children":[2,4,6,8,10,12,14,16,-1,18,20,22,-1,24,26,-1,-1,-1,-1,-1,-1,-1,-1,-1,-1,-1,-1],"split_conditions":[2.75E1,1.4E1,5.9E1,1.45E1,1.26000015E2,1.3E1,3.827779E1,9E0,-5.3308714E-2,1.33E2,8.4E1,1.96E2,-3.507609E-2,6.7E1,3.82778E1,2.8328992E-2,2.010746E-2,-1.27114775E-2,2.1631315E-2,-6.700959E-3,3.787545E-2,3.179648E-2,-3.322225E-2,-2.437108E-2,-3.5511907E-2,4.0694233E-2,-3.34501E-2],"split_indices":[50,48,14,50,28,30,40,48,0,35,12,48,0,14,43,0,0,0,0,0,0,0,0,0,0,0,0],"split_type":[0,0,0,0,0,0,0,0,0,0,0,0,0,0,0,0,0,0,0,0,0,0,0,0,0,0,0],"sum_hessian":[5.1893413E3,3.1164253E3,2.0729163E3,1.8695997E3,1.2468256E3,2.8294144E2,1.7899749E3,1.851036E3,1.8563637E1,1.0367114E3,2.101141E2,2.0570738E2,7.7234055E1,1.7347423E3,5.5232494E1,1.4631155E3,3.8792056E2,5.7611536E2,4.605961E2,2.0068316E1,1.9004579E2,1.8138557E2,2.4321808E1,1.7845377E2,1.5562886E3,1.9497652E1,3.573484E1],"tree_param":{"num_deleted":"0","num_feature":"51","num_nodes":"27","size_leaf_vector":"1"}},{"base_weights":[-1.6885451E-3,6.0615635E-1,-9.4014007E-1,8.12969E-1,2.4661951E-1,-3.9403975E-2,-3.5341226E-2,8.407507E-1,-5.15959E-2,-8.4558E-1,5.2634317E-1,9.524293E-1,-3.6286823E-2,-1.8726502E-2,2.556071E-2,-4.3935E-3,-4.610376E-2,2.0438695E-2,-2.7420647E-2,-3.623763E-2,3.7630424E-2],"categories":[],"categories_nodes":[],"categories_segments":[],"categories_sizes":[],"default_left":[0,0,0,0,0,0,0,0,0,0,1,0,0,0,0,0,0,0,0,0,0],"id":43,"left_children":[1,3,5,7,9,11,-1,13,-1,15,17,19,-1,-1,-1,-1,-1,-1,-1,-1,-1],"loss_changes":[2.932163E3,2.314513E2,4.3278308E2,1.420824E2,3.4981616E2,4.948213E2,0E0,3.3442627E1,0E0,1.1225809E2,2.0445412E2,1.5353737E2,0E0,0E0,0E0,0E0,0E0,0E0,0E0,0E0,0E0],"parents":[2147483647,0,0,1,1,2,2,3,3,4,4,5,5,7,7,9,9,10,10,11,11],"right_children":[2,4,6,8,10,12,-1,14,-1,16,18,20,-1,-1,-1,-1,-1,-1,-1,-1,-1],"split_conditions":[2.75E1,1.6E1,1.890971E-1,1.55E1,2.0833333E-1,7E1,-3.5341226E-2,4.7E0,-5.15959E-2,2.2E1,2.2E1,1.47E2,-3.6286823E-2,-1.8726502E-2,2.556071E-2,-4.3935E-3,-4.610376E-2,2.0438695E-2,-2.7420647E-2,-3.623763E-2,3.7630424E-2],"split_indices":[50,48,49,50,49,15,0,44,0,48,30,48,0,0,0,0,0,0,0,0,0],"split_type":[0,0,0,0,0,0,0,0,0,0,0,0,0,0,0,0,0,0,0,0,0],"sum_hessian":[5.1361846E3,3.1175298E3,2.0186552E3,1.9773302E3,1.1401995E3,4.2234204E2,1.5963131E3,1.9572375E3,2.009263E1,2.3157932E2,9.086202E2,2.2874382E2,1.9359822E2,1.4047918E1,1.9431897E3,1.16407135E2,1.1517218E2,8.213836E2,8.7236595E1,2.7271559E1,2.0147226E2],"tree_param":{"num_deleted":"0","num_feature":"51","num_nodes":"21","size_leaf_vector":"1"}},{"base_weights":[-5.7723895E-3,6.4375913E-1,-8.75391E-1,8.666712E-1,3.3657852E-1,-3.058551E-1,-3.527905E-2,9.3035233E-1,6.7901146E-1,1.0437758E0,1.5319017E-1,-1.150103E0,2.110593E-1,3.2740522E-2,2.5793113E-2,-3.3728793E-2,2.4258856E-2,3.519387E-2,-4.3231867E-2,-5.0403504E-3,3.0286105E-2,-3.618953E-2,-3.5996907E-3,2.5368001E-2,-1.4810167E-2],"categories":[],"categories_nodes":[],"categories_segments":[],"categories_sizes":[],"default_left":[0,0,0,0,0,1,0,0,0,0,0,0,1,0,0,0,0,0,0,0,0,0,0,0,0],"id":44,"left_children":[1,3,5,7,9,11,-1,13,15,17,19,21,23,-1,-1,-1,-1,-1,-1,-1,-1,-1,-1,-1,-1],"loss_changes":[2.8437761E3,1.9663379E2,3.6764453E2,1.8515747E1,1.5718158E2,3.263307E2,0E0,1.2019287E1,1.0242537E2,8.364792E1,2.6655624E2,1.6015106E1,2.0862657E2,0E0,0E0,0E0,0E0,0E0,0E0,0E0,0E0,0E0,0E0,0E0,0E0],"parents":[2147483647,0,0,1,1,2,2,3,3,4,4,5,5,7,7,8,8,9,9,10,10,11,11,12,12],"right_children":[2,4,6,8,10,12,-1,14,16,18,20,22,24,-1,-1,-1,-1,-1,-1,-1,-1,-1,-1,-1,-1],"split_conditions":[2.25E1,9E0,7.6E1,8E0,4.3E1,1.22E2,-3.527905E-2,1.02E2,9.7E1,2.4E1,1.26000015E2,4.4E1,1.3E1,3.2740522E-2,2.5793113E-2,-3.3728793E-2,2.4258856E-2,3.519387E-2,-4.3231867E-2,-5.0403504E-3,3.0286105E-2,-3.618953E-2,-3.5996907E-3,2.5368001E-2,-1.4810167E-2],"split_indices":[50,50,12,48,10,34,0,33,34,29,29,29,31,0,0,0,0,0,0,0,0,0,0,0,0],"split_type":[0,0,0,0,0,0,0,0,0,0,0,0,0,0,0,0,0,0,0,0,0,0,0,0,0],"sum_hessian":[5.030579E3,2.879924E3,2.1506553E3,1.6665725E3,1.2133517E3,7.4444464E2,1.4062106E3,1.2380126E3,4.285599E2,2.4780751E2,9.655442E2,2.818531E2,4.6259155E2,3.680785E2,8.699341E2,2.7657267E1,4.0090262E2,2.3658748E2,1.1220025E1,7.032553E2,2.6228888E2,2.6685144E2,1.5001648E1,2.432822E2,2.1930934E2],"tree_param":{"num_deleted":"0","num_feature":"51","num_nodes":"25","size_leaf_vector":"1"}},{"base_weights":[3.0136842E-2,6.1308557E-1,-9.0500444E-1,8.758543E-1,3.6697957E-1,3.8082518E-2,-3.5010472E-2,-8.429912E-3,8.853553E-1,-4.447347E-2,4.1524705E-1,1.0022515E0,-3.5851333E-2,-4.758391E-3,2.7065728E-2,1.4687364E-2,-2.7262423E-2,-3.5537526E-2,3.7975416E-2],"categories":[],"categories_nodes":[],"categories_segments":[],"categories_sizes":[],"default_left":[0,0,0,0,0,0,0,0,0,0,1,0,0,0,0,0,0,0,0],"id":45,"left_children":[1,3,5,7,9,11,-1,-1,13,-1,15,17,-1,-1,-1,-1,-1,-1,-1],"loss_changes":[2.7654036E3,2.0131665E2,4.8154126E2,1.7150879E1,1.4549178E2,5.0812512E2,0E0,0E0,2.6687866E1,0E0,1.561199E2,1.4126968E2,0E0,0E0,0E0,0E0,0E0,0E0,0E0],"parents":[2147483647,0,0,1,1,2,2,3,3,4,4,5,5,8,8,10,10,11,11],"right_children":[2,4,6,8,10,12,-1,-1,14,-1,16,18,-1,-1,-1,-1,-1,-1,-1],"split_conditions":[2.75E1,8E0,1.890971E-1,4.5E0,8.8E1,7E1,-3.5010472E-2,-8.429912E-3,3.58E1,-4.447347E-2,7.5E1,1.47E2,-3.5851333E-2,-4.758391E-3,2.7065728E-2,1.4687364E-2,-2.7262423E-2,-3.5537526E-2,3.7975416E-2],"split_indices":[50,50,49,44,33,14,0,0,41,0,8,48,0,0,0,0,0,0,0],"split_type":[0,0,0,0,0,0,0,0,0,0,0,0,0,0,0,0,0,0,0],"sum_hessian":[5.068855E3,3.1228975E3,1.9459574E3,1.5076488E3,1.6152488E3,4.2337698E2,1.5225804E3,1.172987E1,1.495919E3,3.9519295E1,1.5757295E3,2.3785568E2,1.855213E2,2.3379581E1,1.4725393E3,1.4932323E3,8.249715E1,2.4793898E1,2.1306178E2],"tree_param":{"num_deleted":"0","num_feature":"51","num_nodes":"19","size_leaf_vector":"1"}},{"base_weights":[1.231095E-2,5.800145E-1,-8.796036E-1,8.485739E-1,3.2598138E-1,2.4969651E-1,-1.0633688E0,8.811265E-1,-5.405554E-2,5.487366E-1,-2.54768E-1,7.7565163E-1,-3.4296896E-2,-5.6585294E-1,-3.471134E-2,2.6883429E-2,6.6149333E-3,1.6571854E-3,2.4060631E-2,9.948789E-3,-2.0781543E-2,3.0390726E-2,-3.2275215E-2,1.1340458E-3,-3.5840128E-2],"categories":[],"categories_nodes":[],"categories_segments":[],"categories_sizes":[],"default_left":[0,0,0,0,1,1,0,1,0,0,0,0,0,1,0,0,0,0,0,0,0,0,0,0,0],"id":46,"left_children":[1,3,5,7,9,11,13,15,-1,17,19,21,-1,23,-1,-1,-1,-1,-1,-1,-1,-1,-1,-1,-1],"loss_changes":[2.4992507E3,2.0510345E2,3.9900586E2,1.2945874E2,2.0127216E2,1.9969846E2,7.548755E1,1.383374E1,0E0,1.4026437E2,1.1141402E2,8.892585E1,0E0,1.01089424E2,0E0,0E0,0E0,0E0,0E0,0E0,0E0,0E0,0E0,0E0,0E0],"parents":[2147483647,0,0,1,1,2,2,3,3,4,4,5,5,6,6,7,7,9,9,10,10,11,11,13,13],"right_children":[2,4,6,8,10,12,14,16,-1,18,20,22,-1,24,-1,-1,-1,-1,-1,-1,-1,-1,-1,-1,-1],"split_conditions":[2.75E1,1E1,5.9E1,1.25E1,1.9E1,1.3E1,6.95E1,3.33E2,-5.405554E-2,1.6E1,7.65E1,1.96E2,-3.4296896E-2,1.3E1,-3.471134E-2,2.6883429E-2,6.6149333E-3,1.6571854E-3,2.4060631E-2,9.948789E-3,-2.0781543E-2,3.0390726E-2,-3.2275215E-2,1.1340458E-3,-3.5840128E-2],"split_indices":[50,48,12,50,29,28,12,24,0,29,12,48,0,28,0,0,0,0,0,0,0,0,0,0,0],"split_type":[0,0,0,0,0,0,0,0,0,0,0,0,0,0,0,0,0,0,0,0,0,0,0,0,0],"sum_hessian":[4.9319277E3,3.0142007E3,1.9177272E3,1.4627417E3,1.5514591E3,2.6821182E2,1.6495154E3,1.4463503E3,1.6391294E1,1.121553E3,4.2990613E2,1.9539188E2,7.281994E1,2.6377032E2,1.3857451E3,1.4134197E3,3.2930695E1,3.8135522E2,7.4019775E2,1.8391284E2,2.4599329E2,1.7403877E2,2.1353096E1,1.354558E2,1.2831451E2],"tree_param":{"num_deleted":"0","num_feature":"51","num_nodes":"25","size_leaf_vector":"1"}},{"base_weights":[4.5424897E-2,6.47389E-1,-6.140554E-1,8.259006E-1,4.083961E-1,-2.4145447E-1,-1.1425121E0,4.4653463E-1,8.695314E-1,4.6707594E-1,-6.226487E-2,5.1040914E-2,-3.442238E-2,-4.5489445E-2,-1.1035953E0,-1.6924446E-2,2.2723928E-2,8.412398E-3,2.6546726E-2,-1.0896153E-2,1.8168299E-2,8.3212545E-3,-3.688712E-2,2.0265853E-2,-3.4596615E-2],"categories":[],"categories_nodes":[],"categories_segments":[],"categories_sizes":[],"default_left":[0,0,1,0,1,0,0,1,0,1,0,0,0,0,0,0,0,0,0,0,0,0,0,0,0],"id":47,"left_children":[1,3,5,7,9,11,13,15,17,19,-1,21,-1,-1,23,-1,-1,-1,-1,-1,-1,-1,-1,-1,-1],"loss_changes":[1.9871797E3,1.1084973E2,4.696568E2,2.3851074E1,1.654789E2,3.7216315E2,1.0751099E1,5.0726513E1,1.1505066E1,1.26859634E2,0E0,3.0865384E2,0E0,0E0,8.121069E1,0E0,0E0,0E0,0E0,0E0,0E0,0E0,0E0,0E0,0E0],"parents":[2147483647,0,0,1,1,2,2,3,3,4,4,5,5,6,6,7,7,8,8,9,9,11,11,14,14],"right_children":[2,4,6,8,10,12,14,16,18,20,-1,22,-1,-1,24,-1,-1,-1,-1,-1,-1,-1,-1,-1,-1],"split_conditions":[2.8E1,1E1,1.9E1,1.09E1,1.54E2,1.96E2,4E1,1.1E0,3.57E1,9.8E1,-6.226487E-2,9.3E1,-3.442238E-2,-4.5489445E-2,4.1E1,-1.6924446E-2,2.2723928E-2,8.412398E-3,2.6546726E-2,-1.0896153E-2,1.8168299E-2,8.3212545E-3,-3.688712E-2,2.0265853E-2,-3.4596615E-2],"split_indices":[48,48,30,44,34,48,48,5,41,35,0,12,0,0,48,0,0,0,0,0,0,0,0,0,0],"split_type":[0,0,0,0,0,0,0,0,0,0,0,0,0,0,0,0,0,0,0,0,0,0,0,0,0],"sum_hessian":[5.0016875E3,2.6149695E3,2.3867183E3,1.4938411E3,1.1211284E3,1.401594E3,9.8512415E2,1.5663908E2,1.3372019E3,1.0968798E3,2.4248688E1,1.0608633E3,3.407307E2,8.54891E1,8.996351E2,3.6392887E1,1.2024619E2,3.5121754E1,1.3020802E3,1.5627934E2,9.406004E2,9.0292584E2,1.5793748E2,2.3673443E1,8.759616E2],"tree_param":{"num_deleted":"0","num_feature":"51","num_nodes":"25","size_leaf_vector":"1"}},{"base_weights":[-9.394649E-3,6.402186E-1,-6.2108254E-1,7.6920664E-1,3.3772087E-1,-2.7869466E-1,-1.1234721E0,7.8104484E-1,-2.2250807E-2,4.2277262E-1,-5.6116655E-2,-1.2222733E-2,-3.4250498E-2,-7.553595E-1,-1.2004858E0,-1.6150633E-2,2.3797713E-2,-8.674713E-3,2.0242289E-2,6.294072E-3,-3.772198E-2,9.248188E-3,-3.4298953E-2,-4.6170667E-2,-3.428149E-2],"categories":[],"categories_nodes":[],"categories_segments":[],"categories_sizes":[],"default_left":[0,0,1,1,1,0,0,0,0,1,0,0,0,0,0,0,0,0,0,0,0,0,0,0,0],"id":48,"left_children":[1,3,5,7,9,11,13,15,-1,17,-1,19,-1,21,23,-1,-1,-1,-1,-1,-1,-1,-1,-1,-1],"loss_changes":[1.8778495E3,8.8792175E1,4.1791406E2,2.9868164E1,1.3082524E2,3.3336865E2,2.5936035E1,2.6554688E1,0E0,1.1972527E2,0E0,3.0756866E2,0E0,7.3478355E1,1.2086304E1,0E0,0E0,0E0,0E0,0E0,0E0,0E0,0E0,0E0,0E0],"parents":[2147483647,0,0,1,1,2,2,3,3,4,4,5,5,6,6,7,7,9,9,11,11,13,13,14,14],"right_children":[2,4,6,8,10,12,14,16,-1,18,-1,20,-1,22,24,-1,-1,-1,-1,-1,-1,-1,-1,-1,-1],"split_conditions":[2.4E1,1.2E1,1.85E1,1.26E2,9.4E1,1.96E2,4.6E1,4.5E0,-2.2250807E-2,1.06E2,-5.6116655E-2,9.3E1,-3.4250498E-2,4.2E1,4.2E1,-1.6150633E-2,2.3797713E-2,-8.674713E-3,2.0242289E-2,6.294072E-3,-3.772198E-2,9.248188E-3,-3.4298953E-2,-4.6170667E-2,-3.428149E-2],"split_indices":[48,48,28,14,22,48,10,44,0,35,0,13,0,48,48,0,0,0,0,0,0,0,0,0,0],"split_type":[0,0,0,0,0,0,0,0,0,0,0,0,0,0,0,0,0,0,0,0,0,0,0,0,0],"sum_hessian":[4.7218105E3,2.289792E3,2.4320186E3,1.6028882E3,6.869039E2,1.4482902E3,9.837284E2,1.5914512E3,1.1437014E1,6.6302966E2,2.38742E1,1.1082356E3,3.400546E2,1.7416493E2,8.095635E2,1.3729921E1,1.5777212E3,1.7313982E2,4.8988986E2,9.418744E2,1.6636118E2,4.658723E1,1.275777E2,1.1028262E2,6.992809E2],"tree_param":{"num_deleted":"0","num_feature":"51","num_nodes":"25","size_leaf_vector":"1"}},{"base_weights":[1.9623954E-2,5.596572E-1,-8.7024266E-1,6.7172474E-1,-4.699721E-2,8.041656E-2,-3.444996E-2,8.892089E-1,5.571206E-1,-1.4892571E0,6.224387E-1,9.933386E-1,-3.53509E-2,1.9018363E-2,3.4773786E-2,2.3361934E-2,7.2951852E-3,-4.9402367E-2,-1.3430421E-2,3.0114798E-2,-1.1081228E-2,-3.4955475E-2,3.7670128E-2],"categories":[],"categories_nodes":[],"categories_segments":[],"categories_sizes":[],"default_left":[0,0,0,1,0,0,0,1,0,1,0,0,0,0,0,0,0,0,0,0,0,0,0],"id":49,"left_children":[1,3,5,7,9,11,-1,13,15,17,19,21,-1,-1,-1,-1,-1,-1,-1,-1,-1,-1,-1],"loss_changes":[2.280457E3,2.009082E2,4.740901E2,6.1003174E1,4.4821832E2,4.704879E2,0E0,5.737787E1,1.135065E2,2.2457062E1,1.2073635E2,1.372888E2,0E0,0E0,0E0,0E0,0E0,0E0,0E0,0E0,0E0,0E0,0E0],"parents":[2147483647,0,0,1,1,2,2,3,3,4,4,5,5,7,7,8,8,9,9,10,10,11,11],"right_children":[2,4,6,8,10,12,-1,14,16,18,20,22,-1,-1,-1,-1,-1,-1,-1,-1,-1,-1,-1],"split_conditions":[2.75E1,1.8E1,1.890971E-1,1.2E1,4.028056E-1,7E1,-3.444996E-2,7.1E1,9E0,1.07E2,5.971944E-1,7.75E1,-3.53509E-2,1.9018363E-2,3.4773786E-2,2.3361934E-2,7.2951852E-3,-4.9402367E-2,-1.3430421E-2,3.0114798E-2,-1.1081228E-2,-3.4955475E-2,3.7670128E-2],"split_indices":[50,50,49,30,49,14,0,15,50,15,49,50,0,0,0,0,0,0,0,0,0,0,0],"split_type":[0,0,0,0,0,0,0,0,0,0,0,0,0,0,0,0,0,0,0,0,0,0,0],"sum_hessian":[4.7414766E3,2.9512852E3,1.7901917E3,2.491061E3,4.6022418E2,4.053951E2,1.3847965E3,8.547022E2,1.6363588E3,1.4516814E2,3.1505603E2,2.3526897E2,1.7012613E2,4.429077E2,4.1179446E2,9.573217E2,6.7903705E2,1.2500856E2,2.0159576E1,2.2760883E2,8.744722E1,2.4707388E1,2.1056158E2],"tree_param":{"num_deleted":"0","num_feature":"51","num_nodes":"23","size_leaf_vector":"1"}},{"base_weights":[-6.5004425E-3,5.3860027E-1,-8.7703437E-1,7.9467845E-1,3.1677237E-1,3.351708E-1,-1.0322554E0,8.140593E-1,-1.9694024E-1,-4.403115E-2,3.6712116E-1,8.1295455E-1,-3.3337828E-2,-5.379829E-1,-3.4213226E-2,-4.0462855E-3,2.47899E-2,-3.7809264E-2,2.7252285E-2,3.0299451E-2,6.743354E-3,-3.185009E-2,3.069546E-2,-2.6097575E-2,2.0958507E-2],"categories":[],"categories_nodes":[],"categories_segments":[],"categories_sizes":[],"default_left":[0,0,0,1,0,1,0,0,0,0,0,1,0,0,0,0,0,0,0,0,0,0,0,0,0],"id":50,"left_children":[1,3,5,7,9,11,13,15,17,-1,19,21,-1,23,-1,-1,-1,-1,-1,-1,-1,-1,-1,-1,-1],"loss_changes":[2.1635183E3,1.5864526E2,3.3110046E2,2.5362488E1,1.3625835E2,1.404936E2,8.185779E1,1.51427E1,3.3389183E1,0E0,1.3358354E2,6.2107437E1,0E0,1.1761432E2,0E0,0E0,0E0,0E0,0E0,0E0,0E0,0E0,0E0,0E0,0E0],"parents":[2147483647,0,0,1,1,2,2,3,3,4,4,5,5,6,6,7,7,8,8,10,10,11,11,13,13],"right_children":[2,4,6,8,10,12,14,16,18,-1,20,22,-1,24,-1,-1,-1,-1,-1,-1,-1,-1,-1,-1,-1],"split_conditions":[2.75E1,8E0,5.7E1,1.19E2,8.8E1,1.3E1,7E1,5.3666668E1,7E0,-4.403115E-2,4.3E1,1.21E2,-3.3337828E-2,3.9E1,-3.4213226E-2,-4.0462855E-3,2.47899E-2,-3.7809264E-2,2.7252285E-2,3.0299451E-2,6.743354E-3,-3.185009E-2,3.069546E-2,-2.6097575E-2,2.0958507E-2],"split_indices":[50,50,12,14,33,31,14,20,50,0,10,32,0,31,0,0,0,0,0,0,0,0,0,0,0],"split_type":[0,0,0,0,0,0,0,0,0,0,0,0,0,0,0,0,0,0,0,0,0,0,0,0,0],"sum_hessian":[4.555238E3,2.8016077E3,1.75363E3,1.2978052E3,1.5038024E3,1.9872395E2,1.554906E3,1.2733765E3,2.4428782E1,3.9665848E1,1.4641365E3,1.500911E2,4.8632866E1,2.8153116E2,1.2733749E3,1.5896703E1,1.2574797E3,1.2354038E1,1.2074743E1,2.6308328E2,1.2010532E3,1.4269789E1,1.358213E2,2.2248434E2,5.9046803E1],"tree_param":{"num_deleted":"0","num_feature":"51","num_nodes":"25","size_leaf_vector":"1"}},{"base_weights":[-1.0280056E-2,6.1597663E-1,-5.8942914E-1,7.896051E-1,4.1999477E-1,-3.282749E-1,-1.1742462E0,2.3956603E-1,8.519595E-1,-1.2694715E0,5.1247025E-1,-9.737607E-2,-3.3940177E-2,-4.6740964E-2,-3.386029E-2,-4.9793806E-2,1.5156067E-2,2.6115295E-2,1.4855856E-3,-5.0790753E-2,1.0773653E-2,1.6888332E-2,-5.321075E-2,1.6961424E-2,-1.2806237E-2],"categories":[],"categories_nodes":[],"categories_segments":[],"categories_sizes":[],"default_left":[0,0,0,0,1,0,0,1,1,1,1,1,0,0,0,0,0,0,0,0,0,0,0,0,0],"id":51,"left_children":[1,3,5,7,9,11,13,15,17,19,21,23,-1,-1,-1,-1,-1,-1,-1,-1,-1,-1,-1,-1,-1],"loss_changes":[1.6346041E3,7.289606E1,3.566963E2,3.8772827E1,1.6085103E2,3.0034338E2,8.840515E0,6.189886E1,1.5123901E1,3.8282127E1,1.1382538E2,2.760072E2,0E0,0E0,0E0,0E0,0E0,0E0,0E0,0E0,0E0,0E0,0E0,0E0,0E0],"parents":[2147483647,0,0,1,1,2,2,3,3,4,4,5,5,6,6,7,7,8,8,9,9,10,10,11,11],"right_children":[2,4,6,8,10,12,14,16,18,20,22,24,-1,-1,-1,-1,-1,-1,-1,-1,-1,-1,-1,-1,-1],"split_conditions":[2.3E1,8E0,9.3E1,1.09E1,8.6E1,1.96E2,3.7E1,9E-1,1.21E2,3.688889E1,2.9E1,1.3E1,-3.3940177E-2,-4.6740964E-2,-3.386029E-2,-4.9793806E-2,1.5156067E-2,2.6115295E-2,1.4855856E-3,-5.0790753E-2,1.0773653E-2,1.6888332E-2,-5.321075E-2,1.6961424E-2,-1.2806237E-2],"split_indices":[48,48,12,45,33,48,48,4,14,42,28,28,0,0,0,0,0,0,0,0,0,0,0,0,0],"split_type":[0,0,0,0,0,0,0,0,0,0,0,0,0,0,0,0,0,0,0,0,0,0,0,0,0],"sum_hessian":[4.502821E3,2.1632808E3,2.3395403E3,1.1435736E3,1.01970715E3,1.619593E3,7.1994727E2,1.1758898E2,1.0259846E3,5.1541477E1,9.6816565E2,1.259753E3,3.5983997E2,6.913385E1,6.508134E2,1.3093593E1,1.0449539E2,1.0025148E3,2.34698E1,4.0889492E1,1.0651986E1,9.4876984E2,1.9395796E1,4.1775034E2,8.4200275E2],"tree_param":{"num_deleted":"0","num_feature":"51","num_nodes":"25","size_leaf_vector":"1"}},{"base_weights":[6.4208196E-3,5.19226E-1,-8.2805675E-1,7.3186874E-1,2.1570912E-1,1.490976E-1,-3.4074772E-2,7.6144236E-1,-5.0205003E-2,-9.1613394E-1,4.7826615E-1,1.0060725E0,-3.4878127E-2,-2.4883099E-2,2.3419397E-2,-4.8257787E-2,3.286569E-3,1.99741E-2,-3.0935908E-2,-3.5104115E-2,3.7278973E-2],"categories":[],"categories_nodes":[],"categories_segments":[],"categories_sizes":[],"default_left":[0,0,0,0,0,0,0,0,0,1,1,0,0,0,0,0,0,0,0,0,0],"id":52,"left_children":[1,3,5,7,9,11,-1,13,-1,15,17,19,-1,-1,-1,-1,-1,-1,-1,-1,-1],"loss_changes":[1.9318132E3,1.800589E2,5.171741E2,1.19348816E2,3.4406393E2,4.668518E2,0E0,5.0926575E1,0E0,1.5540074E2,2.6711963E2,1.3216504E2,0E0,0E0,0E0,0E0,0E0,0E0,0E0,0E0,0E0],"parents":[2147483647,0,0,1,1,2,2,3,3,4,4,5,5,7,7,9,9,10,10,11,11],"right_children":[2,4,6,8,10,12,-1,14,-1,16,18,20,-1,-1,-1,-1,-1,-1,-1,-1,-1],"split_conditions":[2.75E1,1.5E1,1.890971E-1,1.5E1,1.9705883E-1,7E1,-3.4074772E-2,8.5333336E1,-5.0205003E-2,2.3E1,2.1E1,1.47E2,-3.4878127E-2,-2.4883099E-2,2.3419397E-2,-4.8257787E-2,3.286569E-3,1.99741E-2,-3.0935908E-2,-3.5104115E-2,3.7278973E-2],"split_indices":[50,48,49,50,49,14,0,32,0,31,31,48,0,0,0,0,0,0,0,0,0],"split_type":[0,0,0,0,0,0,0,0,0,0,0,0,0,0,0,0,0,0,0,0,0],"sum_hessian":[4.5104414E3,2.7942114E3,1.7162302E3,1.6412242E3,1.1529872E3,4.112461E2,1.3049841E3,1.6226821E3,1.8542143E1,2.160913E2,9.368958E2,2.4906595E2,1.6218016E2,1.8285929E1,1.6043962E3,1.2838034E2,8.771095E1,8.344118E2,1.02484055E2,2.360434E1,2.2546161E2],"tree_param":{"num_deleted":"0","num_feature":"51","num_nodes":"21","size_leaf_vector":"1"}},{"base_weights":[-8.657608E-3,-1.6664913E-1,5.6473637E-1,5.6981796E-1,-2.6370326E-1,-4.517851E-1,7.41355E-1,-4.421799E-2,6.814652E-1,-4.240782E-1,9.878466E-2,2.8394435E-2,-8.874407E-1,4.209403E-1,1.0577029E0,3.1337257E-2,1.1423599E-2,1.082679E-2,-1.5392974E-2,8.9277215E-3,-2.248338E-2,-3.9619397E-2,-1.1685405E-2,-3.7836388E-2,1.6196866E-2,3.332163E-2,-1.134001E-2],"categories":[],"categories_nodes":[],"categories_segments":[],"categories_sizes":[],